
\data\
ngram 1=1231
ngram 2=3191

\1-grams:
-1.212179	</s>
-99	<s>	-0.29765
-3.249606	ABIS	-0.2952059
-3.425697	ABROAD	-0.2966076
-3.425697	ACTUALLY	-0.2953711
-2.948576	ADA	-0.344123
-2.647546	ADALAH	-0.2918068
-3.249606	ADEM	-0.2998877
-2.948576	ADIL	-0.3385256
-3.425697	ADVENTUROUS	-0.3000511
-2.881629	AGAMA	-0.3640597
-3.425697	AGAR	-0.2979226
-3.425697	AGODA	-0.2735333
-3.124667	AIR	-0.2932194
-3.425697	AIRNYA	-0.3007039
-2.823637	AJA	-0.260492
-3.425697	AKAL	-0.2914738
-2.550636	AKAN	-0.302669
-2.881629	AKHIR	-0.6005908
-2.425697	AKU	-0.3499809
-3.425697	ALAM	-0.2914738
-3.425697	ALAMI	-0.2735333
-3.249606	ALAMIAH	-0.4675651
-3.425697	ALAMNYA	-0.2916403
-3.425697	ALAT	-0.300867
-3.249606	ALTERNATIF	-0.2728382
-3.425697	AMBIL	-0.300867
-3.249606	AMPAT	-0.2730121
-2.948576	ANAK	-0.3472659
-3.425697	ANCOL	-0.3004592
-3.249606	AND	-0.3000511
-3.027757	ANGGOTA	-0.2980047
-3.249606	ANTARA	-0.2985786
-3.425697	APA	-0.3007855
-3.124667	APAPUN	-0.2704844
-3.425697	API	-0.300867
-3.425697	APPARENTLY	-0.2993973
-3.425697	ARAH	-0.300867
-3.425697	ASAL	-0.300867
-2.823637	ASASI	-0.6245859
-3.249606	ASIK	-0.2943793
-3.425697	ASING	-0.2916403
-3.425697	ASLI	-0.2983328
-2.279569	ATAS	-0.3482145
-3.425697	ATASAN	-0.3006224
-2.208213	ATAU	-0.2838544
-3.124667	ATAUPUN	-0.2999694
-3.425697	AWAL	-0.300867
-3.425697	AWKWARD	-0.300867
-3.425697	AYAM	-0.2735333
-3.425697	AYEM	-0.3005408
-3.124667	AYO	-0.3912894
-3.249606	BACKPACK	-0.3005408
-3.425697	BADAN	-0.2984147
-3.425697	BAG	-0.2914738
-3.425697	BAGAI	-0.300867
-3.425697	BAGAIMANA	-0.3000511
-3.124667	BAGI	-0.2984967
-3.249606	BAGIKU	-0.4768768
-2.948576	BAGUS	-0.321462
-3.425697	BAHASA	-0.3004592
-2.823637	BAHWA	-0.2930535
-2.772485	BAIK	-0.3173943
-3.425697	BAIKNYA	-0.2735333
-3.425697	BAKAL	-0.2953711
-3.425697	BALANCE	-0.2735333
-2.726727	BALI	-0.2955877
-3.425697	BALIK	-0.2983328
-3.425697	BANANA	-0.3007855
-2.647546	BANDUNG	-0.2862197
-2.647546	BANGET	-0.4219268
-2.404508	BANGSA	-0.5400553
-3.249606	BANTUAN	-0.2914738
-2.612784	BANYAK	-0.3260052
-3.425697	BARBEQUE	-0.3007039
-2.948576	BARENG	-0.5426807
-3.425697	BARU	-0.300867
-3.027757	BATAS	-0.3617397
-3.425697	BATASAN	-0.300867
-3.249606	BATU	-0.3002144
-3.027757	BAWA	-0.3003776
-3.027757	BAWAH	-0.2727513
-3.425697	BAWAKAN	-0.2998877
-3.425697	BAYANGIN	-0.2988244
-3.249606	BEAUTIFUL	-0.4496246
-3.425697	BEAUTY	-0.300867
-3.425697	BEBAN	-0.2735333
-2.823637	BEBAS	-0.2883111
-3.249606	BEBERAPA	-0.2995608
-3.425697	BEDAKAN	-0.2735333
-3.425697	BEGITU	-0.2953711
-3.425697	BEH	-0.3007039
-3.425697	BEKERJASAMA	-0.2977584
-3.124667	BELAJAR	-0.2731859
-2.772485	BELAS	-0.557124
-3.425697	BELI	-0.300867
-3.425697	BELOM	-0.300867
-3.124667	BELUM	-0.2999694
-3.249606	BENAR	-0.3006224
-3.249606	BENER	-0.300296
-3.425697	BENGIS	-0.2916403
-3.249606	BENTUK	-0.300296
-2.948576	BERADA	-0.5085992
-3.249606	BERAGAM	-0.2733596
-3.425697	BERAGAMA	-0.3001328
-3.425697	BERAPA	-0.2993155
-3.425697	BERASAL	-0.2735333
-3.425697	BERAT	-0.3007039
-3.425697	BERBAGAI	-0.3003776
-3.425697	BERBAGI	-0.2984147
-3.425697	BERBENTUK	-0.3007039
-3.425697	BERBICARA	-0.2914738
-3.425697	BERBINTANG	-0.3006224
-3.249606	BERDASARKAN	-0.3003776
-3.425697	BERDIAM	-0.2935512
-3.425697	BERENANG	-0.300867
-3.249606	BERENCANA	-0.473028
-3.425697	BERES	-0.2735333
-3.425697	BERGANTI	-0.3004592
-3.425697	BERGAUL	-0.2991519
-3.425697	BERGERAK	-0.2914738
-2.170425	BERHAK	-0.6096379
-3.425697	BERHARGA	-0.2735333
-3.425697	BERHUBUNGAN	-0.2977584
-3.425697	BERJANJI	-0.2969367
-3.249606	BERKALA	-0.2881292
-3.249606	BERKEMAH	-0.4696425
-3.425697	BERKUMPUL	-0.2914738
-3.425697	BERKUNJUNG	-0.2966076
-3.425697	BERLAINAN	-0.2735333
-3.425697	BERLAKU	-0.2969367
-2.823637	BERLIBUR	-0.3984367
-3.249606	BERMAIN	-0.3003776
-3.425697	BERMAKNA	-0.2914738
-3.425697	BERMARTABAT	-0.2735333
-3.425697	BERSALAH	-0.2735333
-2.881629	BERSAMA	-0.4740139
-3.249606	BERSAMAKU	-0.4767137
-3.425697	BERSANTAI	-0.2977584
-3.425697	BERSERIKAT	-0.300296
-3.249606	BERSIFAT	-0.2997243
-3.425697	BERSINAR	-0.2935512
-3.425697	BERTEKAD	-0.2969367
-3.124667	BERTENTANGAN	-0.5987884
-3.425697	BERTUJUAN	-0.2969367
-3.425697	BERUSAHA	-0.2977584
-3.425697	BESAR	-0.300867
-3.124667	BESOK	-0.2929705
-3.425697	BETAH	-0.2735333
-2.948576	BIAR	-0.4231074
-3.425697	BIASA	-0.2735333
-3.425697	BIKIN	-0.300867
-3.425697	BINATANG	-0.2735333
-3.425697	BINTAN	-0.3007855
-3.249606	BINTANG	-0.2913905
-3.249606	BIOTA	-0.3004592
-2.279569	BISA	-0.3192338
-3.425697	BLACKPINK	-0.2735333
-3.425697	BLEW	-0.3007855
-3.425697	BNB	-0.3007855
-3.249606	BOAT	-0.3007039
-2.772485	BOLEH	-0.299479
-3.425697	BORDER	-0.2983328
-3.425697	BORING	-0.3001328
-3.425697	BOSEN	-0.3000511
-3.425697	BRAGA	-0.2735333
-3.425697	BRO	-0.2735333
-3.249606	BROMO	-0.2992337
-3.425697	BROWSING	-0.3006224
-3.425697	BUAH	-0.3007855
-3.425697	BUANG	-0.300867
-2.647546	BUAT	-0.3383958
-3.425697	BUCKET	-0.300867
-3.425697	BUDAK	-0.2984147
-3.425697	BUDGET	-0.2914738
-3.249606	BUKAN	-0.4767952
-3.249606	BULAN	-0.2997243
-3.124667	BUTUH	-0.2949581
-3.425697	CACAT	-0.3004592
-3.124667	CAMPING	-0.2888002
-3.425697	CAPE	-0.3007855
-3.249606	CAPEK	-0.2997243
-3.027757	CARA	-0.2991519
-3.425697	CARI	-0.3004592
-3.425697	CASE	-0.3007855
-3.425697	CATCHY	-0.2735333
-3.249606	CEMIL	-0.3000511
-3.249606	CEPAT	-0.3003776
-3.425697	CHEAP	-0.2989063
-3.425697	CIATER	-0.2735333
-3.425697	CIKOLE	-0.3007855
-3.425697	CILEMBER	-0.2735333
-3.124667	CITA	-0.3001328
-3.425697	CLASS	-0.2969367
-3.425697	CLEAR	-0.3007855
-3.425697	CLOSE	-0.300867
-3.425697	CLOTHES	-0.2735333
-3.425697	CLOUD	-0.3007855
-3.124667	COBA	-0.3005408
-3.124667	COBAIN	-0.3002144
-3.249606	COCOK	-0.2998877
-3.425697	CONTOHNYA	-0.3004592
-3.425697	COOKING	-0.300867
-3.425697	COZY	-0.3007855
-3.425697	CRAZY	-0.3000511
-3.425697	CROISSANT	-0.300867
-3.249606	CUKUP	-0.2994791
-3.425697	CULTURAL	-0.300867
-3.425697	CULTURE	-0.300867
-3.124667	CUMA	-0.3967978
-2.823637	DAERAH	-0.2498978
-3.249606	DAH	-0.3005408
-2.221577	DALAM	-0.3260658
-3.425697	DAMAI	-0.2992337
-1.662269	DAN	-0.2830306
-3.249606	DANAU	-0.4768768
-2.948576	DAPAT	-0.3512853
-2.208213	DARI	-0.3096164
-3.124667	DARIPADA	-0.3002144
-2.726727	DASAR	-0.2824154
-3.027757	DEH	-0.3001328
-3.124667	DELAPAN	-0.3940934
-3.425697	DEMOKRATIS	-0.3001328
-2.124667	DENGAN	-0.3518046
-3.124667	DENGAR	-0.2928875
-2.772485	DEPAN	-0.3305584
-3.249606	DESTINASI	-0.4764689
-3.249606	DESTINATION	-0.3006224
-3.425697	DEWASA	-0.2735333
-1.767686	DI	-0.4176108
-3.249606	DIA	-0.3004592
-3.425697	DIAGENDAKAN	-0.2995608
-3.425697	DIAKSES	-0.2998877
-3.425697	DIANGGAP	-0.2989063
-3.425697	DIANGKAT	-0.2984147
-3.425697	DIBANDINGIN	-0.2995608
-3.425697	DIBATASI	-0.3007855
-3.425697	DIBAWA	-0.2999694
-3.249606	DIBERIKAN	-0.3006224
-3.425697	DIBUANG	-0.2977584
-3.425697	DIBUKTIKAN	-0.300867
-3.425697	DICABUT	-0.300867
-3.425697	DICIPTAKANNYA	-0.2735333
-3.425697	DICOBA	-0.2735333
-3.425697	DIGALAKKAN	-0.2735333
-3.425697	DIGANGGU	-0.2977584
-3.425697	DIHUBUNGIN	-0.300867
-3.425697	DIHUKUM	-0.300296
-3.249606	DIJAMIN	-0.2996426
-3.425697	DIJATUHKAN	-0.3007855
-3.425697	DIKARUNIAI	-0.300867
-3.425697	DIKENAKAN	-0.3006224
-3.425697	DIKIT	-0.3007039
-3.425697	DIKUNJUNGI	-0.3004592
-3.249606	DILAHIRKAN	-0.2933024
-3.027757	DILAKSANAKAN	-0.2995608
-3.124667	DILAKUKAN	-0.370009
-3.425697	DILARANG	-0.2735333
-3.425697	DILINDUNGI	-0.2998877
-3.425697	DINAMAI	-0.300867
-3.425697	DINGIN	-0.2988244
-3.425697	DINNER	-0.2916403
-3.249606	DINYATAKAN	-0.2977584
-3.425697	DIPAKSA	-0.2969367
-3.425697	DIPENUHI	-0.2998877
-3.425697	DIPERBOLEHKAN	-0.3005408
-3.425697	DIPERBUDAK	-0.2983328
-3.425697	DIPERHAMBAKAN	-0.2735333
-3.249606	DIPERKENANKAN	-0.3002144
-3.425697	DIPERLAKUKAN	-0.300296
-3.124667	DIPERLUKAN	-0.3660811
-3.425697	DIPEROLEH	-0.3003776
-3.425697	DIPERSALAHKAN	-0.3005408
-3.425697	DIPERSIAPKAN	-0.2969367
-3.425697	DIPILIH	-0.2977584
-3.425697	DIRAMPAS	-0.300867
-3.425697	DIRENDAHKAN	-0.300867
-3.425697	DIRI	-0.2983328
-3.425697	DIRINYA	-0.2914738
-3.425697	DISANGKA	-0.3005408
-3.425697	DISCOUNT	-0.3006224
-3.425697	DISIKSA	-0.2983328
-3.425697	DISITU	-0.300867
-3.425697	DISKON	-0.3006224
-3.027757	DISKRIMINASI	-0.260134
-3.425697	DISURUH	-0.3007855
-3.425697	DITAFSIRKAN	-0.3007039
-3.425697	DITAHAN	-0.2983328
-3.425697	DITAMBAH	-0.2977584
-3.425697	DITANGKAP	-0.300867
-3.425697	DITENTUKAN	-0.2997243
-3.425697	DITETAPKAN	-0.2998877
-3.425697	DITOLAK	-0.300867
-3.425697	DITUJUKAN	-0.2966076
-3.425697	DITUNTUT	-0.2998877
-3.249606	DIVING	-0.2932194
-3.425697	DIWAJIBKAN	-0.2735333
-3.425697	DOKUMENTASI	-0.2983328
-3.425697	DONG	-0.3007855
-3.425697	DREAM	-0.3007855
-2.384305	DUA	-0.5586501
-3.425697	DUIT	-0.3001328
-3.425697	DULU	-0.3007855
-3.249606	DUNIA	-0.2725773
-3.249606	DURIAN	-0.2722292
-3.425697	E	-0.300867
-3.249606	EFEKTIF	-0.2706591
-3.425697	EH	-0.3006224
-3.425697	EKONOMI	-0.2735333
-2.948576	EMPAT	-0.2668853
-2.550636	ENAK	-0.2858499
-2.881629	ENAKNYA	-0.3355238
-3.124667	ENAM	-0.2952885
-3.425697	ENJOY	-0.3005408
-3.425697	EROPA	-0.3005408
-3.425697	EXPENSIVE	-0.3000511
-3.425697	EXPERIENCE	-0.3007039
-3.124667	EXPLORE	-0.2984147
-3.425697	EYE	-0.300867
-3.425697	FACE	-0.300867
-3.425697	FAMILY	-0.3007039
-3.124667	FAVORIT	-0.3892991
-3.425697	FLIGHT	-0.2735333
-3.249606	FOOD	-0.2931365
-3.249606	FOTO	-0.3006224
-3.425697	FRESH	-0.2914738
-3.425697	FUNDAMENTAL	-0.2983328
-3.027757	GA	-0.29907
-3.425697	GAJIKU	-0.3007039
-3.124667	GAK	-0.2978405
-3.425697	GAME	-0.3004592
-3.249606	GANGGUAN	-0.2706591
-3.425697	GELOMBANG	-0.3007855
-3.425697	GENTENG	-0.2735333
-3.249606	GEOGRAFIS	-0.4758973
-3.425697	GERAH	-0.3000511
-3.249606	GILI	-0.3007039
-3.249606	GIMANA	-0.2984147
-3.425697	GITAR	-0.3006224
-3.027757	GITU	-0.3387405
-3.249606	GLAMPING	-0.2958661
-3.425697	GOING	-0.300867
-3.425697	GOLDEN	-0.300867
-3.425697	GRATIS	-0.300867
-3.425697	GUNA	-0.300867
-2.496278	GUNUNG	-0.3331264
-3.249606	GW	-0.2730121
-3.425697	HABIS	-0.2735333
-2.036531	HAK	-0.6351211
-3.425697	HAKNYA	-0.2969367
-3.124667	HAL	-0.2974299
-3.425697	HAMPARAN	-0.300867
-3.425697	HAMPIR	-0.3007039
-3.249606	HANYA	-0.3000511
-3.425697	HAPPY	-0.2735333
-2.823637	HARI	-0.3222193
-3.425697	HARTA	-0.2735333
-3.425697	HARTANYA	-0.2977584
-2.425697	HARUS	-0.2959486
-3.425697	HASIL	-0.2983328
-3.425697	HASUTAN	-0.2916403
-2.823637	HATI	-0.4293598
-3.425697	HEAD	-0.3006224
-3.027757	HEALING	-0.2728383
-3.425697	HEALTHY	-0.2735333
-3.425697	HENDAKNYA	-0.300867
-3.124667	HIDUP	-0.3880505
-3.425697	HIJAU	-0.2983328
-3.425697	HIKE	-0.2935512
-3.027757	HIKING	-0.3548241
-3.425697	HIRUP	-0.3005408
-3.425697	HOBI	-0.3007855
-3.249606	HOLIDAY	-0.2956187
-3.249606	HORE	-0.2732728
-3.249606	HOTEL	-0.2914738
-3.425697	HOUR	-0.3007855
-3.249606	HUBUNGAN	-0.3006224
-2.580599	HUKUM	-0.2415689
-3.249606	HUKUMAN	-0.2903896
-3.425697	HUNTING	-0.3007855
-3.249606	HUTAN	-0.273099
-3.249606	IA	-0.3001328
-3.425697	IALAH	-0.2953711
-3.425697	IBADAHNYA	-0.2914738
-3.425697	IBU	-0.2914738
-3.249606	IKUT	-0.2733596
-3.425697	ILMIAH	-0.2735333
-3.425697	ILMU	-0.300867
-3.027757	IN	-0.476224
-2.881629	INDAH	-0.2633452
-3.425697	INDIVIDU	-0.2735333
-2.948576	INDONESIA	-0.3235559
-3.425697	INFINITY	-0.300867
-3.425697	INFORMASI	-0.2914738
-3.124667	INGIN	-0.290139
-2.249606	INI	-0.3225451
-3.027757	INTERNASIONAL	-0.3295804
-3.425697	IS	-0.300867
-3.425697	ISTIMEWA	-0.2735333
-3.425697	ISTIRAHAT	-0.2914738
-3.249606	ITINERARY	-0.4496246
-2.685334	ITU	-0.3204113
-3.425697	IYA	-0.2735333
-3.425697	JABATAN	-0.3007855
-3.425697	JABODETABEK	-0.2735333
-3.425697	JACKSON	-0.300867
-2.580599	JADI	-0.3526711
-3.425697	JAJAHAN	-0.2983328
-3.425697	JAJANAN	-0.300867
-2.948576	JAKARTA	-0.2957012
-2.471455	JALAN	-0.3571922
-3.124667	JAM	-0.3000511
-3.249606	JAMINAN	-0.2911405
-3.425697	JANDA	-0.3007855
-2.647546	JANGAN	-0.6677828
-3.425697	JANJI	-0.2985786
-3.425697	JASTIP	-0.300867
-3.249606	JAUH	-0.2971834
-3.249606	JENIS	-0.3001328
-3.027757	JEPANG	-0.2717065
-3.425697	JERMAN	-0.3006224
-3.249606	JIKA	-0.2999694
-3.425697	JIMBARAN	-0.2735333
-3.425697	JIWA	-0.2988244
-3.425697	JOGJA	-0.3000511
-3.249606	JOIN	-0.3007039
-3.425697	JONI	-0.300867
-3.425697	JUAL	-0.300867
-2.685334	JUGA	-0.3180379
-3.425697	JUJUR	-0.2914738
-3.425697	JUJURLY	-0.2998877
-3.425697	JURUSAN	-0.300296
-3.425697	JUST	-0.3006224
-3.249606	KADANG	-0.4765505
-3.425697	KAGAK	-0.300867
-3.425697	KAK	-0.2993973
-3.425697	KAKAK	-0.2999694
-2.311754	KALAU	-0.3691065
-3.124667	KALI	-0.3960619
-3.425697	KALIAN	-0.2916403
-2.948576	KALO	-0.3481715
-3.425697	KAMERA	-0.2969367
-3.027757	KAMI	-0.2979226
-3.425697	KAMU	-0.2993973
-3.425697	KANTOR	-0.2999694
-3.124667	KAPAN	-0.2980047
-3.425697	KARANGNYA	-0.3001328
-2.580599	KARENA	-0.3322507
-3.425697	KASUS	-0.3007855
-3.425697	KATA	-0.2993973
-3.027757	KATANYA	-0.2995608
-3.425697	KAWAH	-0.3001328
-3.249606	KAYA	-0.2995608
-3.027757	KAYAKNYA	-0.270222
-1.994334	KE	-0.3772389
-3.425697	KEADAAN	-0.2916403
-3.425697	KEADILAN	-0.2914738
-3.249606	KEBANGSAAN	-0.2706591
-3.425697	KEBANYAKAN	-0.3004592
-2.249606	KEBEBASAN	-0.3778946
-3.425697	KEBEBASANNYA	-0.2735333
-3.425697	KEBERHASILAN	-0.2969367
-3.249606	KEBUDAYAAN	-0.2909737
-3.425697	KEBUN	-0.300867
-3.425697	KEBUTUHAN	-0.300867
-3.425697	KEDAULATAN	-0.2916403
-3.425697	KEDUA	-0.300867
-3.124667	KEDUDUKAN	-0.2993155
-3.249606	KEGIATAN	-0.3001328
-3.249606	KEHENDAK	-0.2983327
-3.249606	KEHIDUPAN	-0.2913905
-3.425697	KEHIDUPANNYA	-0.2914738
-3.425697	KEHORMATANNYA	-0.2984147
-3.249606	KEINDAHAN	-0.3007039
-3.249606	KEJAHATAN	-0.2913905
-3.425697	KEJAM	-0.2735333
-3.425697	KEKAYAAN	-0.2983328
-3.249606	KEKUASAAN	-0.2997243
-3.425697	KEKUASAANNYA	-0.2735333
-3.249606	KEKURANGAN	-0.3001328
-3.425697	KELAHIRAN	-0.3007039
-3.425697	KELALAIAN	-0.2916403
-3.425697	KELALIMAN	-0.2914738
-3.425697	KELAMIN	-0.300867
-3.425697	KELAR	-0.2735333
-3.425697	KELIHATAN	-0.3000511
-3.249606	KELOMPOK	-0.3004592
-2.580599	KELUARGA	-0.5943324
-3.425697	KELUARGAKU	-0.3007855
-3.124667	KELUARGANYA	-0.3700959
-3.124667	KEMAJUAN	-0.2976763
-3.027757	KEMANA	-0.363719
-3.425697	KEMARAHAN	-0.3003776
-3.425697	KEMARAU	-0.3006224
-2.948576	KEMARIN	-0.2886325
-3.425697	KEMASYARAKATAN	-0.2970189
-3.425697	KEMBALI	-0.2966076
-3.249606	KEMERDEKAAN	-0.2635228
-3.425697	KENANG	-0.300867
-3.425697	KENANGAN	-0.2983328
-3.425697	KENAPA	-0.300867
-3.249606	KENIKMATAN	-0.2983327
-3.425697	KEPADA	-0.3005408
-3.249606	KEPADANYA	-0.2723162
-3.425697	KEPANTASAN	-0.2735333
-3.249606	KEPENTINGAN	-0.3006224
-3.425697	KEPENTINGANNYA	-0.2735333
-3.124667	KEPERCAYAAN	-0.2692588
-3.425697	KERAMAIAN	-0.3007039
-3.425697	KERASA	-0.300867
-3.425697	KEREN	-0.2735333
-3.249606	KERETA	-0.2980867
-3.425697	KERINGETAN	-0.2735333
-3.249606	KERJA	-0.2910571
-3.027757	KERJAAN	-0.2903896
-3.425697	KESALAHANNYA	-0.3006224
-3.425697	KESATUAN	-0.3007855
-3.425697	KESAYANGAN	-0.2735333
-3.425697	KESEGARAN	-0.3005408
-3.249606	KESEHATAN	-0.4675651
-3.425697	KESEHATANNYA	-0.3001328
-3.249606	KESEJAHTERAAN	-0.2959485
-3.425697	KESELAMATAN	-0.300867
-3.124667	KESEMPATAN	-0.3843672
-3.249606	KESENIAN	-0.2818729
-3.425697	KESUSASTERAAN	-0.2983328
-3.425697	KESUSILAAN	-0.2735333
-3.425697	KETAKUTAN	-0.2914738
-3.425697	KETEMU	-0.300867
-3.425697	KETERTIBAN	-0.2914738
-3.027757	KETIKA	-0.3664259
-3.249606	KEWAJIBAN	-0.3001328
-3.425697	KEWAJIBANNYA	-0.3001328
-3.425697	KEWARASAN	-0.300867
-3.124667	KEWARGANEGARAAN	-0.3675692
-3.425697	KEWARGANEGARAANNYA	-0.2983328
-3.249606	KHAS	-0.2910571
-3.425697	KHUSUS	-0.2996426
-2.295363	KITA	-0.3437786
-3.425697	KM	-0.2735333
-3.425697	KODOK	-0.300867
-3.249606	KOMODO	-0.300296
-3.425697	KOMPETEN	-0.2969367
-3.425697	KONSER	-0.300867
-3.425697	KOPER	-0.3003776
-3.425697	KOPI	-0.3005408
-3.425697	KOREA	-0.300867
-3.124667	KOTA	-0.2705718
-3.425697	KU	-0.3003776
-3.425697	KUDA	-0.3005408
-3.425697	KULIAH	-0.300867
-3.425697	KULINER	-0.2935512
-3.425697	KULINERAN	-0.3006224
-3.425697	KULIT	-0.3007855
-3.027757	KUMPUL	-0.2977585
-3.425697	KUNJUNGI	-0.2969367
-3.249606	KURANG	-0.3007039
-3.425697	KUTA	-0.3005408
-2.612784	LAGI	-0.2838927
-2.647546	LAIN	-0.319924
-3.425697	LAINNYA	-0.3005408
-3.425697	LAKE	-0.3006224
-3.124667	LALU	-0.2980047
-3.425697	LAMA	-0.2989063
-3.425697	LANDMARKS	-0.2935512
-3.425697	LANGIT	-0.3007039
-3.124667	LANGSUNG	-0.2977584
-3.425697	LANJUT	-0.2983328
-3.425697	LAPER	-0.2735333
-3.425697	LARGEST	-0.300867
-3.124667	LAUT	-0.2530942
-3.249606	LAYAK	-0.2907235
-3.425697	LEAVE	-0.2735333
-2.550636	LEBIH	-0.2946275
-3.425697	LEGAL	-0.2735333
-3.425697	LELUASA	-0.2992337
-2.881629	LEMBANG	-0.2663562
-3.425697	LENGKAP	-0.2989063
-3.249606	LETS	-0.3005408
-3.425697	LEWAT	-0.3007039
-3.425697	LEZAT	-0.2983328
-3.249606	LIAT	-0.3005408
-2.881629	LIBUR	-0.3133606
-1.887878	LIBURAN	-0.4087071
-3.425697	LIBURANKU	-0.2735333
-3.425697	LIBURANNYA	-0.3007855
-3.249606	LIFE	-0.3007039
-3.124667	LIHAT	-0.2993973
-3.027757	LIMA	-0.295206
-3.425697	LIST	-0.300867
-3.425697	LITERALLY	-0.3007855
-3.425697	LOH	-0.2735333
-3.425697	LOKAL	-0.2914738
-3.425697	LOKASI	-0.2735333
-3.124667	LOMBOK	-0.370009
-3.425697	LONDON	-0.2735333
-3.425697	LONG	-0.3007039
-3.425697	LONGEST	-0.300867
-3.027757	LUAR	-0.3670796
-3.249606	LUAS	-0.4496246
-3.425697	LUASNYA	-0.3001328
-2.726727	LUPA	-0.3197143
-3.425697	MACAU	-0.2735333
-3.249606	MAH	-0.2717065
-3.425697	MAHAL	-0.2989063
-3.425697	MAHASISWA	-0.300296
-2.881629	MAIN	-0.2827237
-3.425697	MAJELIS	-0.3000511
-3.425697	MAKA	-0.300867
-2.881629	MAKAN	-0.2990701
-2.881629	MAKANAN	-0.2985787
-3.249606	MAKANANNYA	-0.2995608
-3.425697	MAKE	-0.300867
-3.425697	MAKIN	-0.300867
-3.425697	MAKSUD	-0.300867
-3.124667	MALAM	-0.255363
-3.425697	MALESIN	-0.3007039
-3.249606	MAMPIR	-0.2869525
-2.685334	MANA	-0.3420429
-3.425697	MANFAATNYA	-0.2992337
-2.612784	MANUSIA	-0.3255562
-3.425697	MANUSIAWI	-0.2983328
-3.027757	MARTABAT	-0.4673151
-3.425697	MARTABATNYA	-0.2735333
-3.249606	MASA	-0.2949581
-3.425697	MASAK	-0.2735333
-3.425697	MASAKAN	-0.3005408
-3.249606	MASALAH	-0.4768768
-3.027757	MASIH	-0.2993155
-2.823637	MASYARAKAT	-0.32761
-3.249606	MATA	-0.2967722
-3.425697	MATANG	-0.2969367
-3.425697	MATERIAL	-0.2916403
-2.522607	MAU	-0.2995754
-2.772485	MAUPUN	-0.3199351
-3.124667	MEDAN	-0.2985786
-3.425697	MEDIA	-0.300867
-3.425697	MEETING	-0.2735333
-3.425697	MELAKSANAKAN	-0.300867
-2.948576	MELAKUKAN	-0.2982508
-3.124667	MELALUI	-0.3003776
-3.425697	MELEPASKAN	-0.299806
-3.249606	MELIBATKAN	-0.4768768
-3.249606	MELINDUNGI	-0.3007039
-3.425697	MEMAJUKAN	-0.3007855
-3.249606	MEMANDANG	-0.300296
-3.425697	MEMANDANGI	-0.3007855
-3.249606	MEMANG	-0.2995608
-3.425697	MEMASAK	-0.300867
-3.249606	MEMASUKI	-0.2998877
-3.425697	MEMBAWA	-0.300867
-3.425697	MEMBEDA	-0.300867
-3.425697	MEMBELI	-0.3007855
-3.425697	MEMBENTUK	-0.2998877
-3.124667	MEMBERIKAN	-0.3001328
-3.425697	MEMBUAT	-0.3007855
-3.425697	MEMBUTUHKAN	-0.300867
-3.425697	MEMELIHARA	-0.3007855
-3.425697	MEMENUHI	-0.3006224
-3.425697	MEMIHAK	-0.2735333
-3.124667	MEMILIH	-0.3002144
-3.027757	MEMILIKI	-0.2989063
-3.425697	MEMORABLE	-0.3000511
-3.425697	MEMPELAI	-0.3001328
-3.425697	MEMPERKOKOH	-0.3006224
-3.027757	MEMPEROLEH	-0.2985786
-3.425697	MEMPRAKTEKKANNYA	-0.300867
-3.425697	MEMPROKLAMASIKAN	-0.300296
-2.823637	MEMPUNYAI	-0.364785
-3.249606	MENA	-0.2730121
-3.425697	MENAATINYA	-0.2735333
-3.425697	MENANTI	-0.2735333
-3.425697	MENANTIKAN	-0.2953711
-3.425697	MENARIK	-0.2998877
-3.249606	MENCAPAI	-0.3005408
-3.249606	MENCARI	-0.2633451
-3.425697	MENCOBA	-0.3007855
-3.425697	MENDAKI	-0.2996426
-3.124667	MENDAPAT	-0.3964708
-3.249606	MENDAPATKAN	-0.3000511
-3.425697	MENDERITA	-0.3007855
-3.425697	MENDIDIK	-0.2969367
-3.425697	MENDING	-0.3004592
-3.425697	MENDIRIKAN	-0.2914738
-3.425697	MENENTANG	-0.300867
-3.249606	MENERIMA	-0.2913072
-3.425697	MENETAPKAN	-0.2970189
-3.425697	MENGABADIKAN	-0.3007039
-3.425697	MENGABAIKAN	-0.2914738
-3.425697	MENGAJAKKU	-0.300296
-3.425697	MENGAJAR	-0.2914738
-3.425697	MENGAJARKANNYA	-0.2735333
-3.425697	MENGAKIBATKAN	-0.3003776
-3.425697	MENGAKOMODIR	-0.300867
-3.425697	MENGALAMI	-0.3007855
-3.425697	MENGANGGUR	-0.2735333
-3.425697	MENGARAH	-0.3005408
-3.249606	MENGECAP	-0.4768768
-3.425697	MENGELUARKAN	-0.3007039
-3.425697	MENGEMBANGKAN	-0.3007039
-3.425697	MENGENAL	-0.300867
-3.425697	MENGESANKAN	-0.2735333
-3.124667	MENGGALAKKAN	-0.3002144
-3.425697	MENGGANTI	-0.3007039
-3.425697	MENGINAP	-0.2935512
-3.425697	MENGINGAT	-0.300296
-3.425697	MENGUMPULKAN	-0.3007855
-3.425697	MENGUNJUNGI	-0.3007039
-3.425697	MENIKAH	-0.2914738
-2.948576	MENIKMATI	-0.34578
-2.823637	MENIMBANG	-0.9024376
-3.425697	MENIMBULKAN	-0.3006224
-3.425697	MENINGGALKAN	-0.3001328
-2.881629	MENJADI	-0.2985787
-3.425697	MENJAGA	-0.3007855
-3.425697	MENJALANKAN	-0.2970189
-2.948576	MENJAMIN	-0.348911
-3.425697	MENJATUHKAN	-0.3007855
-3.425697	MENJAUH	-0.2983328
-3.425697	MENJELAJAHI	-0.300867
-3.425697	MENO	-0.3000511
-3.027757	MENURUT	-0.2948755
-3.425697	MENURUTKU	-0.3007039
-3.425697	MENYAMPAIKAN	-0.300867
-3.249606	MENYATAKAN	-0.2929705
-3.425697	MENYEGARKAN	-0.2914738
-3.027757	MENYENANGKAN	-0.3384789
-3.425697	MENYURATNYA	-0.2735333
-3.425697	MERASAKAN	-0.300867
-3.249606	MERDEKA	-0.2633451
-2.772485	MEREKA	-0.2999227
-3.124667	MERENCANAKAN	-0.3918681
-3.249606	MERUPAKAN	-0.2999694
-3.425697	MERUSAK	-0.2970189
-3.425697	MESKIPUN	-0.300867
-3.425697	MESTI	-0.300867
-3.425697	MILIK	-0.300867
-3.425697	MIND	-0.300867
-3.027757	MINGGU	-0.3644589
-3.425697	MINUM	-0.300867
-3.124667	MOMEN	-0.2907235
-3.425697	MORIL	-0.2914738
-3.425697	MOTORAN	-0.2966076
-3.425697	MRT	-0.3000511
-3.425697	MUDAH	-0.2977584
-3.425697	MUKA	-0.3000511
-3.425697	MUKADIMAH	-0.3003776
-3.425697	MULA	-0.3007855
-3.425697	MULU	-0.3007039
-3.425697	MUMET	-0.300867
-3.249606	MUMPUNG	-0.299806
-3.425697	MUSEUM	-0.3004592
-3.425697	MUSIM	-0.300867
-3.425697	MUSIN	-0.300867
-3.425697	MUTLAK	-0.2983328
-3.249606	MY	-0.3007039
-3.425697	NABUNG	-0.2983328
-2.948576	NAIK	-0.3502226
-3.425697	NAMA	-0.300867
-3.425697	NAMUN	-0.3007855
-2.881629	NANTI	-0.267766
-3.124667	NASIONAL	-0.2881292
-3.425697	NATURE	-0.300867
-2.550636	NEGARA	-0.3934846
-3.124667	NEGERI	-0.2712704
-3.027757	NEGERINYA	-0.3389148
-3.425697	NGADAIN	-0.300867
-3.425697	NGAPAIN	-0.2993155
-3.425697	NGELARIN	-0.3006224
-3.027757	NGGA	-0.2998877
-3.425697	NGGELINDING	-0.3003776
-3.425697	NGILANGIN	-0.300867
-3.249606	NGOMONG	-0.3004592
-3.425697	NIGHTLIFE	-0.3006224
-3.027757	NIH	-0.2721421
-3.425697	NILAI	-0.3007039
-3.249606	NONTON	-0.3007039
-3.124667	NURANI	-0.3882172
-3.425697	NUSA	-0.2992337
-3.027757	NYA	-0.2646761
-3.027757	NYANYI	-0.3595852
-3.425697	NYARI	-0.3007855
-3.425697	NYELAM	-0.2935512
-3.425697	NYIAPIN	-0.300867
-3.425697	NYIMENG	-0.300867
-3.425697	OBAT	-0.2993155
-3.425697	OBJEK	-0.3003776
-3.425697	OF	-0.300296
-2.580599	OLEH	-0.351004
-3.425697	OMBAK	-0.2983328
-3.425697	ONLINE	-0.2735333
-3.425697	OPEN	-0.3007855
-3.425697	OPNAME	-0.2735333
-3.425697	OPSI	-0.2916403
-2.103478	ORANG	-0.5597362
-3.425697	ORGANISASI	-0.3001328
-3.425697	OUT	-0.2735333
-3.425697	OVERTIME	-0.300867
-2.948576	PADA	-0.3503044
-3.425697	PADANG	-0.300867
-3.124667	PAGI	-0.2978405
-3.425697	PAKAIAN	-0.300867
-3.249606	PAKE	-0.3005408
-3.425697	PALEMBANG	-0.3007855
-2.647546	PALING	-0.4069029
-3.425697	PANGAN	-0.300867
-3.425697	PANJANG	-0.3004592
-2.404508	PANTAI	-0.3787602
-3.425697	PANTAINYA	-0.2735333
-3.425697	PANTAS	-0.2969367
-3.425697	PARA	-0.300867
-3.425697	PARK	-0.300867
-3.124667	PAS	-0.2950407
-2.235365	PASAL	-0.5639952
-3.425697	PASAR	-0.300867
-3.425697	PASIR	-0.2914738
-3.425697	PASPOR	-0.2735333
-3.425697	PASTI	-0.3001328
-3.425697	PASTIKAN	-0.300296
-2.948576	PEGUNUNGAN	-0.3225974
-3.425697	PEKERJA	-0.2969367
-3.027757	PEKERJAAN	-0.3272599
-3.425697	PELAKSANAAN	-0.2916403
-2.823637	PELANGGARAN	-0.4314392
-3.425697	PELAYANAN	-0.3004592
-3.124667	PEMANDANGAN	-0.385794
-3.425697	PEMBANGUNAN	-0.3007855
-3.027757	PEMBATASAN	-0.3578372
-3.425697	PEMBELAANNYA	-0.2735333
-3.425697	PEMBERONTAKAN	-0.3003776
-3.425697	PEMERINTAH	-0.2735333
-3.249606	PEMERINTAHAN	-0.4767137
-3.425697	PEMILIHAN	-0.3000511
-3.425697	PEMPEK	-0.2735333
-3.425697	PEMUNGUTAN	-0.3007855
-3.425697	PENAT	-0.3000511
-3.425697	PENCARIAN	-0.2916403
-3.124667	PENDAPAT	-0.2630784
-2.772485	PENDIDIKAN	-0.3272598
-3.027757	PENGADILAN	-0.4673984
-3.425697	PENGAJARAN	-0.3007855
-3.027757	PENGAKUAN	-0.2805083
-3.425697	PENGALAMAN	-0.2916403
-3.425697	PENGANGGURAN	-0.2735333
-3.249606	PENGEJARAN	-0.2635228
-3.124667	PENGEN	-0.3918681
-3.249606	PENGERTIAN	-0.2724903
-3.425697	PENGETAHUAN	-0.2914738
-3.124667	PENGHARGAAN	-0.3876335
-3.425697	PENGHIDUPAN	-0.2985786
-3.249606	PENGHORMATAN	-0.2906401
-3.425697	PENGHORMATANNYA	-0.300296
-3.249606	PENGUPAHAN	-0.4677316
-3.425697	PENINDASAN	-0.2735333
-3.124667	PENTING	-0.3935999
-3.027757	PENUH	-0.2619209
-3.425697	PENYUKA	-0.3007855
-3.249606	PERAHU	-0.2994791
-3.425697	PERANCIS	-0.2735333
-3.249606	PERASAAN	-0.4677316
-3.425697	PERATURAN	-0.2998877
-3.249606	PERAWATAN	-0.2913072
-3.425697	PERBEDAAN	-0.2987425
-2.823637	PERBUATAN	-0.3668906
-3.425697	PERBUDAKAN	-0.2914738
-3.425697	PERBUKITAN	-0.2983328
-3.425697	PERBURUHAN	-0.2916403
-3.425697	PERCERAIAN	-0.2735333
-3.425697	PERDAGANGAN	-0.300867
-3.249606	PERDAMAIAN	-0.2926383
-2.772485	PERGI	-0.4037481
-3.249606	PERJALANAN	-0.2730121
-3.425697	PERJUANGAN	-0.2735333
-3.027757	PERKAWINAN	-0.3300253
-3.425697	PERKECUALIAN	-0.3007039
-3.425697	PERKEMBANGAN	-0.3007855
-3.425697	PERKUMPULAN	-0.2735333
-3.425697	PERLAKUAN	-0.2983328
-3.425697	PERLENGKAPAN	-0.2916403
-2.772485	PERLINDUNGAN	-0.398702
-2.948576	PERLU	-0.3002144
-3.425697	PERMAINANNYA	-0.2735333
-3.425697	PERNAH	-0.300867
-2.772485	PERNYATAAN	-0.6955342
-3.249606	PERSAHABATAN	-0.2933024
-3.425697	PERSAMAAN	-0.2916403
-3.425697	PERSAUDARAAN	-0.2735333
-2.881629	PERSERIKATAN	-0.8433836
-3.425697	PERSETUJUAN	-0.3006224
-3.425697	PERTUMBUHAN	-0.3003776
-3.425697	PERUMAHAN	-0.2914738
-3.425697	PERWALIAN	-0.2735333
-3.425697	PESAWAT	-0.2983328
-3.425697	PESONA	-0.3007039
-3.425697	PIAGAM	-0.3004592
-3.425697	PIDANA	-0.2916403
-3.249606	PIKIRAN	-0.3000511
-3.249606	PILIH	-0.2839966
-2.948576	PILIHAN	-0.2929705
-3.425697	PINGGIR	-0.2995608
-3.425697	PINGIN	-0.2953711
-3.425697	PINTER	-0.300867
-3.425697	PISAN	-0.2735333
-3.425697	PLAN	-0.2916403
-3.249606	POHON	-0.2913905
-3.124667	POLITIK	-0.3675692
-3.425697	POLUSI	-0.3005408
-3.425697	POOL	-0.2735333
-3.425697	PREFERENCE	-0.300867
-3.425697	PREPARE	-0.2977584
-3.249606	PRIA	-0.2907235
-3.249606	PRIBADI	-0.2839966
-3.124667	PRIBADINYA	-0.3669571
-3.425697	PRINDAVAN	-0.3006224
-3.425697	PRODUKSI	-0.300867
-3.425697	PROGRESIF	-0.2916403
-3.425697	PROJECTNYA	-0.3007855
-3.425697	PUAS	-0.2989063
-3.425697	PULANG	-0.2988244
-3.124667	PULAU	-0.3975324
-2.612784	PULUH	-0.3331995
-2.647546	PUN	-0.4301499
-3.249606	PUNCAK	-0.2988244
-3.027757	PUNYA	-0.2987425
-3.425697	PUSING	-0.2998877
-3.425697	RAHASIA	-0.3007039
-3.425697	RAILWAY	-0.2977584
-3.249606	RAJA	-0.4768768
-3.249606	RAKYAT	-0.2992337
-3.425697	RANCA	-0.300867
-3.425697	RAPI	-0.2735333
-3.249606	RAS	-0.3001328
-3.027757	RASA	-0.3000511
-3.249606	RASANYA	-0.3004592
-3.425697	RATUS	-0.3006224
-3.425697	RAWON	-0.300867
-3.425697	RECOGNITION	-0.300867
-3.249606	REFRESHING	-0.2725773
-3.425697	REGISTRASI	-0.2969367
-3.425697	REKOMENDASI	-0.3007855
-3.425697	RELAX	-0.3007855
-3.249606	RELAXING	-0.2724903
-3.249606	RENCANA	-0.2967722
-3.425697	RENCANANYA	-0.2988244
-3.124667	RENDAH	-0.2856881
-3.425697	RESERVASI	-0.300867
-3.425697	RESTORAN	-0.300867
-3.425697	RIBU	-0.2992337
-3.249606	RINJANI	-0.4496246
-3.425697	RIWEUH	-0.3004592
-3.124667	RUMAH	-0.2996426
-3.425697	RUMPUT	-0.2916403
-2.948576	SAAT	-0.2994791
-3.249606	SAATNYA	-0.3005408
-3.425697	SABAR	-0.2969367
-3.425697	SAFE	-0.300867
-3.249606	SAJA	-0.2912238
-3.249606	SAKIT	-0.2933853
-3.027757	SALAH	-0.3652796
-3.425697	SALAK	-0.2998877
-3.425697	SALING	-0.3007855
-3.425697	SALJU	-0.2735333
-2.471455	SAMA	-0.3000574
-2.948576	SAMBIL	-0.2997243
-3.425697	SAMPAH	-0.300867
-3.425697	SAMPAHNYA	-0.300867
-3.249606	SAMPAI	-0.3007039
-3.425697	SAMPE	-0.3001328
-3.425697	SAMPING	-0.3001328
-3.027757	SANA	-0.3390889
-2.685334	SANGAT	-0.3494033
-2.364999	SATU	-0.4665644
-3.249606	SATUNYA	-0.2890515
-2.580599	SAYA	-0.3211899
-3.425697	SEAFOOD	-0.2935512
-2.823637	SEBAGAI	-0.2976763
-3.425697	SEBAGIAN	-0.300867
-3.425697	SEBAIKNYA	-0.3005408
-3.425697	SEBELAS	-0.2991519
-3.249606	SEBELUM	-0.2952059
-3.249606	SEBELUMNYA	-0.4496246
-3.425697	SEBENERNYA	-0.3000511
-3.425697	SEBENTAR	-0.2999694
-3.425697	SEBESAR	-0.300867
-3.425697	SEBULAN	-0.2735333
-2.772485	SECARA	-0.2963605
-3.425697	SECOND	-0.300867
-3.425697	SEDIA	-0.3007855
-3.249606	SEGALA	-0.3004592
-3.027757	SEGAR	-0.3292242
-3.425697	SEGER	-0.3007855
-3.425697	SEHARIAN	-0.2735333
-3.425697	SEHARUSNYA	-0.300867
-3.425697	SEIMBANG	-0.2735333
-3.425697	SEJARAH	-0.300867
-3.249606	SEJENAK	-0.3006224
-3.249606	SEJUK	-0.2912238
-3.027757	SEKALI	-0.2879613
-3.425697	SEKALIAN	-0.3007039
-3.425697	SEKALIGUS	-0.300867
-3.249606	SEKARANG	-0.3001328
-3.425697	SEKEDAR	-0.3006224
-3.425697	SEKITARAN	-0.3000511
-3.425697	SEKOLAH	-0.3007039
-2.948576	SELALU	-0.3494033
-2.772485	SELAMA	-0.3529725
-3.124667	SELESAI	-0.2988244
-3.425697	SELUAS	-0.300867
-3.425697	SEMACAM	-0.3001328
-3.425697	SEMAKIN	-0.2999694
-3.425697	SEMANGAT	-0.300867
-3.425697	SEMATA	-0.3007855
-3.425697	SEMBARANGAN	-0.300867
-2.881629	SEMBILAN	-0.2953711
-3.249606	SEMENA	-0.4768768
-3.425697	SEMERU	-0.3007039
-3.249606	SEMESTER	-0.2980047
-3.249606	SEMOGA	-0.2994791
-3.425697	SEMPAT	-0.300867
-2.550636	SEMUA	-0.3649538
-3.425697	SENANTIASA	-0.300867
-2.881629	SENDIRI	-0.3583849
-3.425697	SENDIRIAN	-0.3006224
-2.772485	SEORANG	-0.9532636
-3.425697	SEPANJANG	-0.3003776
-3.425697	SEPENUHNYA	-0.2735333
-3.027757	SEPERTI	-0.2980047
-3.425697	SEPERTINYA	-0.3006224
-3.425697	SEPI	-0.3006224
-3.425697	SEPULUH	-0.2979226
-3.249606	SERIKAT	-0.3006224
-2.685334	SERTA	-0.3128675
-2.823637	SERU	-0.3480015
-3.124667	SESEORANG	-0.2722292
-3.249606	SESUAI	-0.2962781
-3.124667	SESUATU	-0.2993155
-3.425697	SETAHUN	-0.2735333
-3.425697	SETAN	-0.3004592
-3.124667	SETELAH	-0.3002144
-3.425697	SETENGAH	-0.299806
-2.146944	SETIAP	-0.8494106
-3.425697	SETIDAK	-0.300867
-3.249606	SEWENANG	-0.4768768
-3.425697	SIANG	-0.3003776
-3.425697	SIAPA	-0.2997243
-3.425697	SIBERIAN	-0.300867
-3.425697	SIBUK	-0.300867
-3.425697	SIBUKNYA	-0.300867
-3.425697	SIDANG	-0.300867
-2.823637	SIH	-0.263878
-3.425697	SINGAPUR	-0.3000511
-3.425697	SINGAPURA	-0.2735333
-3.425697	SLEEPING	-0.300867
-3.425697	SNORKELING	-0.2935512
-3.124667	SO	-0.3003776
-3.425697	SOAL	-0.3006224
-3.124667	SOALNYA	-0.2697845
-3.425697	SOCIALLY	-0.300867
-3.425697	SOLD	-0.300867
-3.425697	SOMETIMES	-0.2988244
-3.249606	SORE	-0.2981687
-2.881629	SOSIAL	-0.4577939
-3.249606	SPOT	-0.3005408
-3.425697	STANDAR	-0.3000511
-3.027757	STAYCATION	-0.4690617
-3.249606	STREET	-0.4768768
-3.425697	STRES	-0.3007855
-3.425697	STRESS	-0.3007039
-3.425697	STUDIO	-0.3000511
-3.425697	SUAKA	-0.2935512
-3.249606	SUARA	-0.2635228
-2.685334	SUATU	-0.3209932
-2.772485	SUDAH	-0.2937998
-2.881629	SUKA	-0.2980047
-3.249606	SUMBER	-0.3006224
-3.425697	SUNDA	-0.2916403
-3.249606	SUNGGUH	-0.2980867
-3.249606	SUNRISE	-0.3003776
-3.249606	SUNSET	-0.2732728
-3.249606	SUNYI	-0.4496246
-3.425697	SUPAYA	-0.2975942
-3.425697	SUPER	-0.300867
-3.425697	SURABAYA	-0.3000511
-3.425697	SURAT	-0.300867
-3.249606	SURFING	-0.2839966
-3.425697	SURGANYA	-0.300867
-3.425697	SUSUN	-0.3007855
-3.425697	SWIFT	-0.2935512
-3.027757	SYARAT	-0.3580039
-2.550636	TAHUN	-0.5168068
-3.425697	TAHUNNYA	-0.2735333
-3.425697	TAHURA	-0.3007039
-3.249606	TAK	-0.3001328
-3.425697	TAKUT	-0.3000511
-3.425697	TANGGANYA	-0.2983328
-3.249606	TANGKUBAN	-0.4768768
-3.027757	TANPA	-0.3671612
-3.425697	TANTANGAN	-0.2735333
-2.647546	TAPI	-0.3154032
-3.249606	TARAF	-0.4767952
-3.425697	TATANAN	-0.3004592
-3.425697	TAYLOR	-0.300867
-3.425697	TEH	-0.3001328
-3.425697	TEKNIK	-0.2914738
-2.823637	TELAH	-0.3344865
-2.948576	TEMAN	-0.3343009
-3.425697	TEMANKU	-0.299806
-3.249606	TEMEN	-0.2732728
-2.685334	TEMPAT	-0.3035621
-3.425697	TEMPLES	-0.3007855
-3.124667	TENGAH	-0.3975324
-3.124667	TENTANG	-0.598049
-3.425697	TEPI	-0.2993155
-3.425697	TERAKHIR	-0.300867
-3.425697	TERASA	-0.3007855
-3.124667	TERBAIK	-0.2611177
-3.425697	TERBENTUKNYA	-0.3001328
-3.124667	TERBUKA	-0.2719679
-3.425697	TERCANTUM	-0.2935512
-2.772485	TERHADAP	-0.4066648
-3.425697	TERJUN	-0.300867
-3.027757	TERKENAL	-0.3311797
-3.425697	TERLEWAT	-0.300867
-3.425697	TERLIBAT	-0.2935512
-3.249606	TERMAKTUB	-0.4696425
-2.881629	TERMASUK	-0.3388226
-3.124667	TERNYATA	-0.2726643
-3.425697	TERPAKSA	-0.3007039
-3.124667	TERSEBUT	-0.2722292
-3.425697	TERSERAH	-0.2997243
-3.425697	TERTINGGI	-0.2983328
-3.425697	TERUMBU	-0.300867
-3.027757	TERUS	-0.2996426
-3.249606	TESIS	-0.300296
-3.425697	TETEP	-0.300867
-2.772485	THE	-0.3297692
-3.124667	TIBA	-0.2980047
-3.425697	TIBALAH	-0.3006224
-2.311754	TIDAK	-0.378049
-3.425697	TIDAKNYA	-0.2969367
-3.249606	TIDUR	-0.299806
-2.685334	TIGA	-0.3485537
-3.425697	TIKET	-0.3006224
-3.425697	TIKETNYA	-0.3005408
-3.425697	TIMBUL	-0.2998877
-3.124667	TINDAKAN	-0.2998877
-3.425697	TINGGAL	-0.300867
-3.249606	TINGGI	-0.2976763
-3.425697	TINGKAT	-0.300867
-3.425697	TIPE	-0.2953711
-3.425697	TO	-0.3007855
-3.249606	TOBA	-0.2717065
-3.425697	TOLERANSI	-0.2914738
-3.425697	TOUR	-0.2935512
-3.425697	TOURGUIDE	-0.2735333
-3.124667	TRACK	-0.2969367
-3.249606	TRACKING	-0.2890515
-3.425697	TRADISIONAL	-0.2935512
-3.425697	TRAFFIC	-0.300867
-3.425697	TRAIN	-0.3007039
-3.249606	TRANS	-0.3007039
-3.249606	TRAVELING	-0.2954536
-3.425697	TRAVELOKA	-0.3003776
-3.425697	TRAWANGAN	-0.300867
-3.425697	TREKKING	-0.2935512
-3.249606	TRIP	-0.2635228
-3.425697	TRY	-0.3004592
-3.425697	TU	-0.3004592
-3.425697	TUA	-0.3003776
-3.425697	TUBUH	-0.2988244
-3.027757	TUGAS	-0.289219
-2.823637	TUH	-0.288297
-2.881629	TUJUAN	-0.3316153
-3.124667	TUJUH	-0.2971834
-3.425697	TUNDUK	-0.3007855
-3.425697	TUNTUTAN	-0.300867
-3.425697	TURIS	-0.300867
-3.249606	TURUN	-0.2938826
-3.249606	TURUT	-0.476224
-3.425697	UANG	-0.300867
-3.249606	UBUD	-0.2993155
-2.948576	UDAH	-0.2988244
-2.948576	UDARA	-0.2823836
-2.948576	UDARANYA	-0.3419595
-3.249606	UJIAN	-0.2724033
-3.425697	UJUNG	-0.300867
-3.425697	UMAT	-0.2999694
-2.647546	UMUM	-0.3176383
-2.881629	UNDANG	-0.392941
-3.425697	UNGGUN	-0.2735333
-3.425697	UNIVERSAL	-0.2914738
-3.425697	UNPAID	-0.300867
-2.027757	UNTUK	-0.3081716
-3.425697	UPAH	-0.2735333
-3.425697	UPAS	-0.2735333
-3.425697	URUSAN	-0.3007039
-3.425697	USAHA	-0.300867
-3.425697	USIA	-0.300867
-3.425697	UTAMA	-0.2969367
-3.249606	VACATION	-0.3004592
-3.425697	VARIASI	-0.3004592
-3.425697	VIEW	-0.3006224
-3.027757	VILLA	-0.2817026
-3.425697	VISA	-0.2993155
-3.425697	VOLCANIC	-0.300867
-3.425697	WABAH	-0.2735333
-3.425697	WAHANA	-0.300867
-3.249606	WAJIB	-0.300296
-3.249606	WAKIL	-0.2913905
-3.124667	WAKTU	-0.2931365
-3.425697	WALAUPUN	-0.3007855
-3.249606	WANITA	-0.2635228
-3.425697	WARGA	-0.300867
-3.425697	WARNA	-0.300867
-3.425697	WAS	-0.300867
-3.124667	WEEKEND	-0.3950787
-3.249606	WENANG	-0.2733596
-3.425697	WHICH	-0.300867
-3.425697	WHOOSH	-0.2993155
-3.124667	WILAYAH	-0.2730121
-3.425697	WILL	-0.3007039
-3.425697	WINTER	-0.300867
-2.823637	WISATA	-0.3415478
-3.425697	WORK	-0.3007855
-3.249606	WORLD	-0.2724903
-2.404508	YA	-0.4645654
-1.669822	YANG	-0.3532047
-3.425697	YOASOBI	-0.2735333
-3.249606	YOGYAKARTA	-0.2928044
-3.249606	YUK	-0.2933024
-3.425697	ZOO	-0.3006224

\2-grams:
-2.692847	<s> ABIS
-2.692847	<s> ACTUALLY
-2.391817	<s> AKAN
-2.391817	<s> AKHIR
-1.847749	<s> AKU
-2.692847	<s> ANCOL
-2.692847	<s> APPARENTLY
-2.692847	<s> ASAL
-2.692847	<s> ASIK
-2.692847	<s> ATAU
-2.692847	<s> AYO
-2.090787	<s> BAIK
-2.692847	<s> BALI
-2.692847	<s> BANDUNG
-2.391817	<s> BANYAK
-2.692847	<s> BAYANGIN
-2.692847	<s> BELI
-2.215726	<s> BERHAK
-2.692847	<s> BERKEMAH
-2.215726	<s> BERLIBUR
-2.391817	<s> BESOK
-2.692847	<s> BISA
-2.391817	<s> BUAT
-2.692847	<s> BUTUH
-2.391817	<s> CAMPING
-2.692847	<s> CARI
-2.692847	<s> COBAIN
-1.993877	<s> DALAM
-1.546719	<s> DAN
-1.993877	<s> DENGAN
-2.692847	<s> DENGAR
-2.692847	<s> DESTINATION
-1.914696	<s> DI
-2.692847	<s> EH
-2.692847	<s> GA
-2.692847	<s> GAJIKU
-2.692847	<s> GILI
-2.391817	<s> GIMANA
-2.692847	<s> GOING
-2.090787	<s> HAK
-2.692847	<s> HAL
-2.692847	<s> HARUS
-2.692847	<s> HATI
-2.692847	<s> HEALING
-2.391817	<s> HIKING
-2.692847	<s> HOLIDAY
-2.692847	<s> HUKUM
-2.692847	<s> INDONESIA
-2.692847	<s> INGIN
-2.692847	<s> INI
-2.215726	<s> JADI
-2.692847	<s> JAJAHAN
-2.692847	<s> JAKARTA
-2.391817	<s> JALAN
-2.391817	<s> JANGAN
-2.692847	<s> JONI
-2.391817	<s> JUGA
-2.692847	<s> JUJURLY
-2.692847	<s> KAK
-1.578904	<s> KALAU
-2.391817	<s> KALO
-2.391817	<s> KAMI
-2.692847	<s> KANTOR
-2.692847	<s> KARENA
-2.692847	<s> KATA
-2.391817	<s> KATANYA
-2.391817	<s> KAYAKNYA
-2.692847	<s> KE
-2.692847	<s> KEADILAN
-2.692847	<s> KEBANYAKAN
-2.391817	<s> KEHENDAK
-2.391817	<s> KELOMPOK
-2.692847	<s> KELUARGA
-2.692847	<s> KELUARGANYA
-2.692847	<s> KEMARIN
-2.692847	<s> KERETA
-2.692847	<s> KESUSASTERAAN
-2.692847	<s> KETERTIBAN
-2.692847	<s> KETIKA
-2.692847	<s> KEWARGANEGARAAN
-2.215726	<s> KITA
-2.692847	<s> KOTA
-2.391817	<s> LETS
-2.692847	<s> LIBUR
-1.488727	<s> LIBURAN
-2.692847	<s> LITERALLY
-2.692847	<s> MAIN
-2.692847	<s> MAKA
-2.692847	<s> MAU
-2.692847	<s> MEMANG
-2.692847	<s> MEMPEROLEH
-2.692847	<s> MEMPRAKTEKKANNYA
-2.692847	<s> MENDAKI
-2.692847	<s> MENDERITA
-2.692847	<s> MENERIMA
-1.914696	<s> MENIMBANG
-2.692847	<s> MENJAMIN
-2.391817	<s> MEREKA
-2.692847	<s> MESKIPUN
-2.391817	<s> MINGGU
-2.692847	<s> MRT
-2.692847	<s> MY
-2.692847	<s> NAIK
-2.391817	<s> NANTI
-2.692847	<s> NGOMONG
-2.692847	<s> ORANG
-2.692847	<s> OVERTIME
-2.692847	<s> PALING
-2.692847	<s> PANTAI
-2.692847	<s> PARA
-2.391817	<s> PAS
-1.215726	<s> PASAL
-1.993877	<s> PENDIDIKAN
-2.215726	<s> PENGEN
-2.692847	<s> PERBUDAKAN
-2.692847	<s> PERKAWINAN
-2.692847	<s> PERNYATAAN
-2.692847	<s> PILIHAN
-2.692847	<s> PINGIN
-2.692847	<s> PULAU
-2.692847	<s> REFRESHING
-2.692847	<s> REKOMENDASI
-2.692847	<s> RENCANANYA
-2.692847	<s> SAAT
-2.692847	<s> SALAH
-2.692847	<s> SAMBIL
-2.692847	<s> SAMPAI
-2.215726	<s> SAYA
-2.692847	<s> SEBAGAI
-2.692847	<s> SEBAGIAN
-2.692847	<s> SEBELUM
-2.692847	<s> SEBENTAR
-2.692847	<s> SECARA
-2.692847	<s> SEKARANG
-2.215726	<s> SELAMA
-2.692847	<s> SEMAKIN
-2.391817	<s> SEMOGA
-2.391817	<s> SEMUA
-2.692847	<s> SEPERTI
-2.692847	<s> SERTA
-2.215726	<s> SETELAH
-1.738604	<s> SETIAP
-2.692847	<s> SIANG
-2.692847	<s> SIAPA
-2.692847	<s> SOMETIMES
-2.692847	<s> SOSIAL
-2.692847	<s> STAYCATION
-2.692847	<s> STRESS
-2.692847	<s> SUATU
-2.391817	<s> TAHUN
-2.692847	<s> TAK
-2.692847	<s> TEMEN
-2.215726	<s> TEMPAT
-2.215726	<s> TERMASUK
-2.692847	<s> TERSERAH
-2.215726	<s> TIDAK
-2.692847	<s> TOLERANSI
-2.692847	<s> TRACKING
-2.692847	<s> TREKKING
-2.692847	<s> TRIP
-2.692847	<s> UDARA
-2.692847	<s> UNTUK
-2.692847	<s> VILLA
-2.692847	<s> WALAUPUN
-2.391817	<s> WEEKEND
-2.692847	<s> WISATA
-2.692847	<s> YANG
-0.60206	ABIS LIBURAN
-0.60206	ABIS NGELARIN
-0.30103	ABROAD KE
-0.30103	ACTUALLY LIBURAN
-0.6532125	ADA DI
-0.9542425	ADA DISCOUNT
-0.9542425	ADA RESTORAN
-0.9542425	ADA SPOT
-1.342423	ADALAH CARA
-1.342423	ADALAH DASAR
-1.342423	ADALAH GUNUNG
-1.342423	ADALAH KE
-1.342423	ADALAH KESATUAN
-1.342423	ADALAH MOMEN
-1.342423	ADALAH SALAH
-1.342423	ADALAH SURGANYA
-1.342423	ADALAH TRANS
-1.342423	ADALAH UDARA
-1.342423	ADALAH WAKTU
-0.60206	ADEM AYEM
-0.60206	ADEM BUAT
-0.9542425	ADIL DALAM
-0.6532125	ADIL DAN
-0.9542425	ADIL DAPAT
-0.9542425	ADIL SERTA
-0.30103	ADVENTUROUS BANGET
-0.69897	AGAMA </s>
-0.69897	AGAMA ATAU
-1	AGAMA BERHAK
-1	AGAMA POLITIK
-0.30103	AGAR SETIAP
-0.30103	AGODA </s>
-0.7781513	AIR BNB
-0.7781513	AIR DI
-0.7781513	AIR TERJUN
-0.30103	AIRNYA SO
-1.146128	AJA </s>
-1.146128	AJA CAPEK
-1.146128	AJA DI
-1.146128	AJA LEBIH
-1.146128	AJA LIFE
-1.146128	AJA TAHUN
-1.146128	AJA YA
-0.30103	AKAL DAN
-1.431364	AKAN BERKEMAH
-1.431364	AKAN BERUSAHA
-1.431364	AKAN DIBERIKAN
-1.130334	AKAN HAK
-1.431364	AKAN JADI
-1.431364	AKAN LEBIH
-1.431364	AKAN LIBURAN
-1.431364	AKAN MARTABAT
-1.431364	AKAN MENGECAP
-1.431364	AKAN PERGI
-1.431364	AKAN PESONA
-1.431364	AKAN TERPAKSA
-1.431364	AKAN VARIASI
-0.90309	AKHIR SEMESTER
-0.20412	AKHIR TAHUN
-1.518514	AKU AKAN
-1.041393	AKU DAN
-1.518514	AKU KE
-1.518514	AKU KEMARIN
-1.518514	AKU LEBIH
-1.518514	AKU MAH
-0.916454	AKU MAU
-1.518514	AKU NAIK
-1.518514	AKU PERNAH
-1.518514	AKU SANGAT
-1.518514	AKU SELALU
-1.518514	AKU SUDAH
-1.518514	AKU SUKA
-1.518514	AKU TAKUT
-0.30103	ALAM DAN
-0.30103	ALAMI </s>
-0.1760913	ALAMIAH DAN
-0.30103	ALAMNYA YANG
-0.30103	ALAT MASAK
-0.60206	ALTERNATIF </s>
-0.60206	ALTERNATIF BERLIBUR
-0.30103	AMBIL UNPAID
-0.60206	AMPAT </s>
-0.60206	AMPAT SELALU
-0.6532125	ANAK ANAK
-0.9542425	ANAK BAIK
-0.9542425	ANAK BERHAK
-0.9542425	ANAK MEREKA
-0.30103	ANCOL MENJADI
-0.60206	AND BEAUTIFUL
-0.60206	AND THE
-0.90309	ANGGOTA KELUARGA
-0.90309	ANGGOTA MASYARAKAT
-0.90309	ANGGOTA SENDIRI
-0.90309	ANGGOTA TELAH
-0.60206	ANTARA NEGARA
-0.60206	ANTARA SEMUA
-0.30103	APA SAJA
-0.7781513	APAPUN </s>
-0.7781513	APAPUN ATAU
-0.7781513	APAPUN MESTI
-0.30103	API UNGGUN
-0.30103	APPARENTLY AKU
-0.30103	ARAH PERKEMBANGAN
-0.30103	ASAL MULA
-0.6532125	ASASI </s>
-0.2552725	ASASI MANUSIA
-0.60206	ASIK BANGET
-0.60206	ASIK LIBURAN
-0.30103	ASING YANG
-0.30103	ASLI DARI
-1.681241	ATAS BANTUAN
-1.681241	ATAS DASAR
-1.681241	ATAS ISTIRAHAT
-1.681241	ATAS JAMINAN
-1.681241	ATAS KAWAH
-1.079181	ATAS KEBEBASAN
-1.681241	ATAS KEHORMATANNYA
-1.681241	ATAS KEPENTINGAN
-1.681241	ATAS KESEMPATAN
-1.681241	ATAS MARTABAT
-1.681241	ATAS PEKERJAAN
-1.681241	ATAS PENGADILAN
-1.681241	ATAS PENGAKUAN
-1.681241	ATAS PENGHIDUPAN
-1.380211	ATAS PENGUPAHAN
-1.20412	ATAS PERLINDUNGAN
-1.681241	ATAS SEMUA
-1.681241	ATAS SESUATU
-1.681241	ATAS SUATU
-1.681241	ATAS SYARAT
-1.681241	ATAS TARAF
-0.30103	ATASAN TERUS
-1.799341	ATAU AGAMA
-1.799341	ATAU CIATER
-1.799341	ATAU DAERAH
-1.799341	ATAU DIBUANG
-1.799341	ATAU DIHUKUM
-1.799341	ATAU DIPERHAMBAKAN
-1.799341	ATAU DIPERLAKUKAN
-1.799341	ATAU DIRENDAHKAN
-1.799341	ATAU DITOLAK
-1.799341	ATAU DIVING
-1.799341	ATAU FOTO
-1.799341	ATAU HAMPARAN
-1.799341	ATAU HUBUNGAN
-1.799341	ATAU HUKUM
-1.799341	ATAU INTERNASIONAL
-1.799341	ATAU KARENA
-1.799341	ATAU KE
-1.799341	ATAU KEBUN
-1.799341	ATAU KEDUDUKAN
-1.799341	ATAU KELALAIAN
-1.799341	ATAU KEMASYARAKATAN
-1.498311	ATAU KEPERCAYAAN
-1.799341	ATAU KESENIAN
-1.799341	ATAU MELAKUKAN
-1.799341	ATAU MELALUI
-1.799341	ATAU MENGALAMI
-1.799341	ATAU PELANGGARAN
-1.799341	ATAU PENDAPAT
-1.799341	ATAU SEKEDAR
-1.799341	ATAU WILAYAH
-1.799341	ATAU YANG
-0.7781513	ATAUPUN KEDUDUKAN
-0.7781513	ATAUPUN MENURUT
-0.7781513	ATAUPUN SESEORANG
-0.30103	AWAL TAHUNNYA
-0.30103	AWKWARD NAMUN
-0.30103	AYAM </s>
-0.30103	AYEM BIAR
-0.69897	AYO KE
-0.39794	AYO KITA
-0.60206	BACKPACK KHUSUS
-0.60206	BACKPACK SOALNYA
-0.30103	BADAN DALAM
-0.30103	BAG DAN
-0.30103	BAGAI KUDA
-0.30103	BAGAIMANA PUN
-0.7781513	BAGI SAYA
-0.7781513	BAGI SEMUA
-0.7781513	BAGI WARGA
-0.1760913	BAGIKU BUKAN
-0.6532125	BAGUS </s>
-0.9542425	BAGUS BANGET
-0.9542425	BAGUS KAPAN
-0.9542425	BAGUS YA
-0.30103	BAHASA AGAMA
-1.146128	BAHWA BANGSA
-1.146128	BAHWA HAK
-1.146128	BAHWA MENGABAIKAN
-1.146128	BAHWA NEGARA
-1.146128	BAHWA PEMBANGUNAN
-1.146128	BAHWA PENGAKUAN
-1.146128	BAHWA PENGERTIAN
-1.146128	BAIK </s>
-1.146128	BAIK DARI
-1.146128	BAIK DI
-1.146128	BAIK OLEH
-0.845098	BAIK SENDIRI
-0.845098	BAIK YANG
-0.30103	BAIKNYA </s>
-0.30103	BAKAL LIBURAN
-0.30103	BALANCE </s>
-0.9294189	BALI </s>
-1.230449	BALI BANYAK
-1.230449	BALI BELUM
-1.230449	BALI BULAN
-1.230449	BALI DIPENUHI
-1.230449	BALI MAU
-1.230449	BALI MEMILIKI
-1.230449	BALI PADA
-0.30103	BALIK DARI
-0.30103	BANANA BOAT
-1.322219	BANDUNG </s>
-1.322219	BANDUNG ADA
-1.021189	BANDUNG BAGIKU
-1.322219	BANDUNG CONTOHNYA
-1.322219	BANDUNG ENAKNYA
-1.322219	BANDUNG KAMU
-1.322219	BANDUNG KE
-1.322219	BANDUNG KENAPA
-1.322219	BANDUNG LAGI
-1.322219	BANDUNG MEMPUNYAI
-0.6283889	BANGET </s>
-1.230449	BANGET DAH
-0.9294189	BANGET NAIK
-1.230449	BANGET SIH
-1.230449	BANGET SOALNYA
-0.9294189	BANGET TAPI
-0.8293038	BANGSA </s>
-0.4771213	BANGSA BANGSA
-1.431364	BANGSA DALAM
-1.431364	BANGSA DAN
-0.9542425	BANGSA DARI
-1.431364	BANGSA KEPERCAYAAN
-1.431364	BANGSA SEKALI
-0.60206	BANTUAN ISTIMEWA
-0.60206	BANTUAN YANG
-1.322219	BANYAK </s>
-1.322219	BANYAK BELAJAR
-1.322219	BANYAK BIOTA
-1.322219	BANYAK DAN
-1.322219	BANYAK OBJEK
-1.021189	BANYAK PANTAI
-1.322219	BANYAK SEKALI
-0.845098	BANYAK TEMPAT
-1.322219	BANYAK TURIS
-0.30103	BARBEQUE MALAM
-0.243038	BARENG KELUARGA
-0.845098	BARENG TEMEN
-0.30103	BARU BALIK
-0.845098	BATAS ATAU
-0.544068	BATAS BATAS
-0.845098	BATAS SETIAP
-0.30103	BATASAN KEDAULATAN
-0.60206	BATU BATU
-0.60206	BATU INDAH
-0.90309	BAWA GITAR
-0.90309	BAWA KOPER
-0.90309	BAWA OBAT
-0.90309	BAWA PERLENGKAPAN
-0.90309	BAWAH </s>
-0.90309	BAWAH BATASAN
-0.90309	BAWAH KEKUASAAN
-0.90309	BAWAH LAUT
-0.30103	BAWAKAN OLEH
-0.30103	BAYANGIN KITA
-0.1760913	BEAUTIFUL </s>
-0.30103	BEAUTY OF
-0.30103	BEBAN </s>
-1.113943	BEBAS </s>
-1.113943	BEBAS DALAM
-0.8129134	BEBAS DAN
-1.113943	BEBAS LIBURAN
-1.113943	BEBAS MEMILIH
-1.113943	BEBAS PRIBADINYA
-0.60206	BEBERAPA JAM
-0.60206	BEBERAPA OLEH
-0.30103	BEDAKAN </s>
-0.30103	BEGITU LIBURAN
-0.30103	BEH SO
-0.30103	BEKERJASAMA DENGAN
-0.7781513	BELAJAR </s>
-0.7781513	BELAJAR MEMASAK
-0.7781513	BELAJAR SEJARAH
-0.3424227	BELAS SATU
-0.7403627	BELAS SETIAP
-1.041393	BELAS TIDAK
-0.30103	BELI TIKET
-0.30103	BELOM KELAR
-0.7781513	BELUM LIHAT
-0.7781513	BELUM MAKAN
-0.7781513	BELUM PUAS
-0.60206	BENAR BENAR
-0.60206	BENAR TIMBUL
-0.60206	BENER BENER
-0.60206	BENER MENIKMATI
-0.30103	BENGIS YANG
-0.60206	BENTUK APAPUN
-0.60206	BENTUK DISKRIMINASI
-0.845098	BERADA </s>
-0.243038	BERADA DI
-0.60206	BERAGAM </s>
-0.60206	BERAGAM WAHANA
-0.30103	BERAGAMA SERTA
-0.30103	BERAPA YA
-0.30103	BERASAL </s>
-0.30103	BERAT DARIPADA
-0.30103	BERBAGAI DAERAH
-0.30103	BERBAGI DALAM
-0.30103	BERBENTUK WILAYAH
-0.30103	BERBICARA DAN
-0.30103	BERBINTANG BAWA
-0.60206	BERDASARKAN KEPANTASAN
-0.60206	BERDASARKAN PILIHAN
-0.30103	BERDIAM DI
-0.30103	BERENANG TUBUH
-0.1760913	BERENCANA UNTUK
-0.30103	BERES </s>
-0.30103	BERGANTI AGAMA
-0.30103	BERGAUL SATU
-0.30103	BERGERAK DAN
-0.3405385	BERHAK ATAS
-1.662758	BERHAK DENGAN
-1.662758	BERHAK KEMBALI
-1.662758	BERHAK MEMILIKI
-1.662758	BERHAK MENCARI
-1.185637	BERHAK MENDAPAT
-1.662758	BERHAK MENDAPATKAN
-1.662758	BERHAK MENDIRIKAN
-1.662758	BERHAK MENINGGALKAN
-1.662758	BERHAK TURUT
-1.185637	BERHAK UNTUK
-0.30103	BERHARGA </s>
-0.30103	BERHUBUNGAN DENGAN
-0.30103	BERJANJI UNTUK
-0.60206	BERKALA DAN
-0.60206	BERKALA DENGAN
-0.1760913	BERKEMAH DI
-0.30103	BERKUMPUL DAN
-0.30103	BERKUNJUNG KE
-0.30103	BERLAINAN </s>
-0.30103	BERLAKU UNTUK
-1.041393	BERLIBUR </s>
-1.041393	BERLIBUR BERSAMA
-0.7403627	BERLIBUR DI
-0.5642715	BERLIBUR KE
-0.60206	BERMAIN SAMBIL
-0.60206	BERMAIN SEPANJANG
-0.30103	BERMAKNA DAN
-0.30103	BERMARTABAT </s>
-0.30103	BERSALAH </s>
-0.4771213	BERSAMA KELUARGA
-0.6532125	BERSAMA SAMA
-0.9542425	BERSAMA TEMAN
-0.1760913	BERSAMAKU KETIKA
-0.30103	BERSANTAI DENGAN
-0.30103	BERSERIKAT SECARA
-0.60206	BERSIFAT NASIONAL
-0.60206	BERSIFAT UMUM
-0.30103	BERSINAR DI
-0.30103	BERTEKAD UNTUK
-0.1249387	BERTENTANGAN DENGAN
-0.30103	BERTUJUAN UNTUK
-0.30103	BERUSAHA DENGAN
-0.30103	BESAR MAHASISWA
-0.7781513	BESOK KITA
-0.7781513	BESOK LIBURAN
-0.7781513	BESOK LONG
-0.30103	BETAH </s>
-0.60206	BIAR BISA
-0.90309	BIAR EYE
-0.60206	BIAR NGGA
-0.30103	BIASA </s>
-0.30103	BIKIN BOSEN
-0.30103	BINATANG </s>
-0.30103	BINTAN COCOK
-0.60206	BINTANG BINTANG
-0.60206	BINTANG YANG
-0.60206	BIOTA BIOTA
-0.60206	BIOTA LAUT
-1.690196	BISA BARENG
-1.690196	BISA BEBAS
-1.690196	BISA BENER
-1.690196	BISA BERMAIN
-1.690196	BISA DI
-1.213075	BISA JADI
-1.690196	BISA JALAN
-1.690196	BISA KARENA
-1.389166	BISA KE
-1.690196	BISA KUMPUL
-1.690196	BISA LANGSUNG
-1.389166	BISA LIAT
-1.389166	BISA LIBURAN
-1.690196	BISA LIHAT
-1.690196	BISA MAIN
-1.690196	BISA MAMPIR
-1.690196	BISA MENIKMATI
-1.690196	BISA NGGA
-1.690196	BISA NYANYI
-1.690196	BISA PERGI
-1.690196	BISA STAYCATION
-1.690196	BISA TRAVELING
-0.30103	BLACKPINK </s>
-0.30103	BLEW MY
-0.30103	BNB KADANG
-0.60206	BOAT MENDING
-0.60206	BOAT TOUR
-1.20412	BOLEH DILAKSANAKAN
-1.20412	BOLEH DIPAKSA
-1.20412	BOLEH DIPERBUDAK
-1.20412	BOLEH DIPERSALAHKAN
-1.20412	BOLEH DIRAMPAS
-1.20412	BOLEH DISIKSA
-1.20412	BOLEH DITAFSIRKAN
-1.20412	BOLEH DITANGKAP
-0.30103	BORDER DARI
-0.30103	BORING JUGA
-0.30103	BOSEN TAPI
-0.30103	BRAGA </s>
-0.30103	BRO </s>
-0.60206	BROMO KARENA
-0.60206	BROMO TUH
-0.30103	BROWSING DEH
-0.30103	BUAH PIKIRAN
-0.30103	BUANG SAMPAH
-1.30103	BUAT BARBEQUE
-1.30103	BUAT CEMIL
-1.30103	BUAT KALIAN
-0.8239087	BUAT LIBURAN
-1.30103	BUAT MENGAKOMODIR
-1.30103	BUAT NGILANGIN
-1.30103	BUAT NYARI
-1.30103	BUAT SAYA
-1.30103	BUAT TEMAN
-0.30103	BUCKET LIST
-0.30103	BUDAK DALAM
-0.30103	BUDGET DAN
-0.1760913	BUKAN CUMA
-0.60206	BULAN DEPAN
-0.60206	BULAN SEMBILAN
-0.7781513	BUTUH LIBURAN
-0.7781513	BUTUH UANG
-0.7781513	BUTUH VACATION
-0.30103	CACAT MENJADI
-0.7781513	CAMPING DI
-0.7781513	CAMPING KE
-0.7781513	CAMPING SEBELUM
-0.30103	CAPE KERJA
-0.60206	CAPEK BANGET
-0.60206	CAPEK SOALNYA
-0.90309	CARA CARA
-0.90309	CARA LAIN
-0.90309	CARA MENGAJARKANNYA
-0.90309	CARA TERBAIK
-0.30103	CARI MAKANAN
-0.30103	CASE SAKIT
-0.30103	CATCHY </s>
-0.60206	CEMIL CEMIL
-0.60206	CEMIL SELAMA
-0.60206	CEPAT JAKARTA
-0.60206	CEPAT LEWAT
-0.30103	CHEAP KALAU
-0.30103	CIATER </s>
-0.30103	CIKOLE MEMANG
-0.30103	CILEMBER </s>
-0.7781513	CITA CITA
-0.7781513	CITA RASA
-0.7781513	CITA TERTINGGI
-0.30103	CLASS UNTUK
-0.30103	CLEAR AND
-0.30103	CLOSE BORDER
-0.30103	CLOTHES </s>
-0.30103	CLOUD YUK
-0.7781513	COBA HIRUP
-0.7781513	COBA JAJANAN
-0.7781513	COBA RAWON
-0.7781513	COBAIN CROISSANT
-0.7781513	COBAIN DEH
-0.7781513	COBAIN DURIAN
-0.60206	COCOK BUAT
-0.60206	COCOK DIKUNJUNGI
-0.30103	CONTOHNYA LEMBANG
-0.30103	COOKING CLASS
-0.30103	COZY COCOK
-0.30103	CRAZY TAPI
-0.30103	CROISSANT ASLI
-0.60206	CUKUP BUAT
-0.60206	CUKUP TERMASUK
-0.30103	CULTURAL LANDMARKS
-0.30103	CULTURE BLEW
-0.69897	CUMA ITU
-0.39794	CUMA MASALAH
-1.146128	DAERAH </s>
-1.146128	DAERAH DAERAH
-1.146128	DAERAH DARI
-1.146128	DAERAH DI
-1.146128	DAERAH GUNUNG
-1.146128	DAERAH PERBUKITAN
-1.146128	DAERAH YANG
-0.60206	DAH BUTUH
-0.60206	DAH PINTER
-1.755875	DALAM BATAS
-1.755875	DALAM BENTUK
-1.755875	DALAM HAK
-1.454845	DALAM HAL
-1.755875	DALAM JABATAN
-1.755875	DALAM KEGIATAN
-1.755875	DALAM KEHIDUPAN
-1.755875	DALAM KEMAJUAN
-1.755875	DALAM KEMERDEKAAN
-1.755875	DALAM MASA
-1.755875	DALAM MASYARAKAT
-1.755875	DALAM MAUPUN
-1.755875	DALAM MEMELIHARA
-1.755875	DALAM MENETAPKAN
-1.755875	DALAM MENJALANKAN
-1.755875	DALAM NAMA
-1.755875	DALAM PEMERINTAHAN
-1.755875	DALAM PEMILIHAN
-1.755875	DALAM PENGHARGAAN
-1.153815	DALAM PERNYATAAN
-1.755875	DALAM PERSAMAAN
-1.755875	DALAM PIAGAM
-1.755875	DALAM SEMANGAT
-1.755875	DALAM SETIAP
-1.755875	DALAM SOAL
-1.454845	DALAM SUATU
-0.30103	DAMAI DUA
-2.311754	DAN AGAMA
-2.311754	DAN AKAN
-2.311754	DAN ANAK
-2.311754	DAN BAIK
-2.010724	DAN BANDUNG
-2.311754	DAN BANTUAN
-2.311754	DAN BANYAK
-2.311754	DAN BERAGAMA
-2.311754	DAN BERBAGI
-2.311754	DAN BERDIAM
-1.612784	DAN BERHAK
-2.311754	DAN BERSERIKAT
-2.311754	DAN BISA
-2.311754	DAN BUAH
-2.010724	DAN DASAR
-1.834633	DAN DENGAN
-2.311754	DAN DUIT
-2.311754	DAN EFEKTIF
-2.311754	DAN EXPERIENCE
-2.311754	DAN FUNDAMENTAL
-2.010724	DAN HAK
-2.311754	DAN HARI
-2.311754	DAN HATI
-2.311754	DAN HEALTHY
-2.311754	DAN HENDAKNYA
-2.311754	DAN INTERNASIONAL
-2.311754	DAN ITINERARY
-2.311754	DAN JIKA
-2.311754	DAN JUGA
-2.311754	DAN JUJUR
-2.311754	DAN JURUSAN
-1.270361	DAN KEBEBASAN
-2.311754	DAN KEBUDAYAAN
-2.311754	DAN KEKURANGAN
-2.010724	DAN KELUARGA
-2.311754	DAN KELUARGAKU
-2.010724	DAN KELUARGANYA
-2.010724	DAN KESEJAHTERAAN
-2.311754	DAN KESELAMATAN
-2.311754	DAN KEWAJIBAN
-2.311754	DAN KEWARASAN
-2.311754	DAN LEBIH
-2.311754	DAN LELUASA
-2.311754	DAN LIBURAN
-2.311754	DAN MANFAATNYA
-2.311754	DAN MATERIAL
-2.311754	DAN MELEPASKAN
-2.311754	DAN MEMANDANG
-2.311754	DAN MEMASUKI
-2.311754	DAN MEMBELI
-2.311754	DAN MEMPUNYAI
-2.311754	DAN MENAATINYA
-2.311754	DAN MENDIDIK
-2.311754	DAN MENGELUARKAN
-2.311754	DAN MENGUMPULKAN
-2.311754	DAN MENIKMATI
-2.311754	DAN MENYAMPAIKAN
-2.311754	DAN MUTLAK
-2.311754	DAN NEGARA
-2.311754	DAN NILAI
-2.311754	DAN PADA
-2.311754	DAN PANTAINYA
-2.311754	DAN PENDIDIKAN
-2.311754	DAN PENGAJARAN
-2.311754	DAN PENGHORMATAN
-2.311754	DAN PENGHORMATANNYA
-2.311754	DAN PENINDASAN
-2.311754	DAN PERAWATAN
-2.311754	DAN PERDAGANGAN
-2.311754	DAN PERDAMAIAN
-2.311754	DAN PERSAHABATAN
-2.311754	DAN PERSETUJUAN
-2.311754	DAN PERTUMBUHAN
-2.311754	DAN SEMUA
-2.311754	DAN SESUAI
-2.311754	DAN SETIAP
-2.311754	DAN TARAF
-2.311754	DAN TELAH
-2.311754	DAN TEMAN
-2.311754	DAN TEMANKU
-2.311754	DAN TERBENTUKNYA
-2.311754	DAN TERBUKA
-2.311754	DAN TERHADAP
-2.311754	DAN TIDAK
-2.311754	DAN TUGAS
-2.311754	DAN UDARA
-2.311754	DAN UJIAN
-1.834633	DAN UNTUK
-2.311754	DAN WANITA
-2.010724	DAN YANG
-0.1760913	DANAU TOBA
-0.9542425	DAPAT DIAKSES
-0.9542425	DAPAT DICABUT
-0.9542425	DAPAT DIGANGGU
-0.6532125	DAPAT DILAKSANAKAN
-1.778151	DARI ATAS
-1.778151	DARI AWAL
-1.778151	DARI BANDUNG
-1.778151	DARI BERBAGAI
-1.778151	DARI DAERAH
-1.778151	DARI GUNUNG
-1.477121	DARI ITU
-1.778151	DARI JAKARTA
-1.778151	DARI JANJI
-1.778151	DARI KERAMAIAN
-1.778151	DARI KETAKUTAN
-1.778151	DARI MANA
-1.778151	DARI MANUSIA
-1.477121	DARI MASYARAKAT
-1.30103	DARI NEGARA
-1.778151	DARI PANTAI
-1.778151	DARI PENGADILAN
-1.778151	DARI PENGANGGURAN
-1.778151	DARI PENGEJARAN
-1.778151	DARI PERANCIS
-1.778151	DARI PERSERIKATAN
-1.778151	DARI PRIA
-1.778151	DARI RAKYAT
-1.778151	DARI SEMUA
-1.778151	DARI SESUATU
-1.778151	DARI SETIAP
-1.778151	DARI TIGA
-1.778151	DARI YOGYAKARTA
-0.7781513	DARIPADA BACKPACK
-0.7781513	DARIPADA HUKUMAN
-0.7781513	DARIPADA TRACK
-1.230449	DASAR </s>
-1.230449	DASAR ATAU
-1.230449	DASAR DARI
-1.230449	DASAR KEDUDUKAN
-1.230449	DASAR KEKUASAAN
-1.230449	DASAR KEMERDEKAAN
-0.9294189	DASAR PERSERIKATAN
-1.230449	DASAR YANG
-0.90309	DEH DESTINASI
-0.90309	DEH PAKE
-0.90309	DEH RASANYA
-0.90309	DEH SUSUN
-0.69897	DELAPAN BELAS
-0.39794	DELAPAN SETIAP
-0.30103	DEMOKRATIS TIGA
-1.355388	DENGAN BEBAS
-1.832509	DENGAN BEGITU
-1.832509	DENGAN BEKERJASAMA
-1.832509	DENGAN BERAGAM
-1.832509	DENGAN BERENANG
-1.832509	DENGAN CARA
-1.832509	DENGAN INI
-1.355388	DENGAN JALAN
-1.832509	DENGAN MAKSUD
-1.832509	DENGAN MATANG
-1.832509	DENGAN MENERIMA
-1.832509	DENGAN MEREKA
-1.531479	DENGAN ORANG
-1.832509	DENGAN ORGANISASI
-1.832509	DENGAN PANJANG
-1.832509	DENGAN PEMUNGUTAN
-1.832509	DENGAN PENUH
-1.832509	DENGAN PERLINDUNGAN
-1.832509	DENGAN PERNYATAAN
-1.832509	DENGAN PERSERIKATAN
-1.832509	DENGAN POLITIK
-1.832509	DENGAN RESERVASI
-1.531479	DENGAN SEMENA
-1.832509	DENGAN SENANTIASA
-1.531479	DENGAN SEWENANG
-1.832509	DENGAN TEMAN
-1.531479	DENGAN TIDAK
-1.355388	DENGAN TUJUAN
-1.832509	DENGAN UJIAN
-0.7781513	DENGAR DENGAR
-0.7781513	DENGAR DI
-0.7781513	DENGAR LOMBOK
-0.845098	DEPAN </s>
-1.146128	DEPAN BISA
-0.845098	DEPAN HUKUM
-1.146128	DEPAN JANGAN
-1.146128	DEPAN KE
-1.146128	DEPAN VILLA
-0.1760913	DESTINASI WISATA
-0.60206	DESTINATION IALAH
-0.60206	DESTINATION STREET
-0.30103	DEWASA </s>
-2.149219	DI ANTARA
-1.848189	DI BALI
-1.672098	DI BANDUNG
-1.672098	DI BAWAH
-2.149219	DI BRAGA
-2.149219	DI BROMO
-2.149219	DI CIKOLE
-2.149219	DI DAERAH
-1.149219	DI DALAM
-2.149219	DI DANAU
-1.848189	DI DEPAN
-2.149219	DI DUNIA
-2.149219	DI GILI
-1.450249	DI GUNUNG
-1.848189	DI HOTEL
-1.848189	DI INDONESIA
-1.848189	DI JAKARTA
-2.149219	DI JALAN
-2.149219	DI JEPANG
-2.149219	DI JIMBARAN
-2.149219	DI KOTA
-2.149219	DI KUNJUNGI
-2.149219	DI LANGIT
-1.848189	DI LEMBANG
-2.149219	DI LOKASI
-2.149219	DI LOMBOK
-1.848189	DI LUAR
-1.304121	DI MANA
-2.149219	DI MEDAN
-2.149219	DI MUKA
-2.149219	DI MUSIM
-2.149219	DI NEGARA
-2.149219	DI OMBAK
-1.450249	DI PANTAI
-2.149219	DI PASAR
-1.848189	DI PEGUNUNGAN
-2.149219	DI PRINDAVAN
-2.149219	DI PULAU
-2.149219	DI RUMAH
-2.149219	DI SAMPING
-1.848189	DI SANA
-2.149219	DI SEKITARAN
-2.149219	DI SINGAPUR
-2.149219	DI TAHURA
-1.672098	DI TENGAH
-2.149219	DI TEPI
-2.149219	DI TRAVELOKA
-2.149219	DI UBUD
-2.149219	DI UJUNG
-1.848189	DI VILLA
-2.149219	DI YOGYAKARTA
-0.60206	DIA HOBI
-0.60206	DIA MEMPEROLEH
-0.30103	DIAGENDAKAN JALAN
-0.30103	DIAKSES OLEH
-0.30103	DIANGGAP TIDAK
-0.30103	DIANGKAT DALAM
-0.30103	DIBANDINGIN SAMA
-0.30103	DIBATASI KEBANGSAAN
-0.30103	DIBAWA LAGI
-0.60206	DIBERIKAN KEPADA
-0.60206	DIBERIKAN KEPADANYA
-0.30103	DIBUANG DENGAN
-0.30103	DIBUKTIKAN KESALAHANNYA
-0.30103	DICABUT KEWARGANEGARAANNYA
-0.30103	DICIPTAKANNYA </s>
-0.30103	DICOBA </s>
-0.30103	DIGALAKKAN </s>
-0.30103	DIGANGGU DENGAN
-0.30103	DIHUBUNGIN ATASAN
-0.30103	DIHUKUM SECARA
-0.60206	DIJAMIN BETAH
-0.60206	DIJAMIN ENAK
-0.30103	DIJATUHKAN KEPADANYA
-0.30103	DIKARUNIAI AKAL
-0.30103	DIKENAKAN KETIKA
-0.30103	DIKIT LANGSUNG
-0.30103	DIKUNJUNGI BERSAMA
-0.60206	DILAHIRKAN DI
-0.60206	DILAHIRKAN MERDEKA
-0.90309	DILAKSANAKAN BERDASARKAN
-0.90309	DILAKSANAKAN BERTENTANGAN
-0.90309	DILAKSANAKAN SECARA
-0.90309	DILAKSANAKAN SEPENUHNYA
-0.39794	DILAKUKAN </s>
-0.69897	DILAKUKAN MENURUT
-0.30103	DILARANG </s>
-0.30103	DILINDUNGI OLEH
-0.30103	DINAMAI WHOOSH
-0.30103	DINGIN KITA
-0.30103	DINNER YANG
-0.60206	DINYATAKAN DALAM
-0.60206	DINYATAKAN SEBAGAI
-0.30103	DIPAKSA UNTUK
-0.30103	DIPENUHI OLEH
-0.30103	DIPERBOLEHKAN MELAKUKAN
-0.30103	DIPERBUDAK ATAU
-0.30103	DIPERHAMBAKAN </s>
-0.60206	DIPERKENANKAN MENJATUHKAN
-0.60206	DIPERKENANKAN PELANGGARAN
-0.30103	DIPERLAKUKAN SECARA
-0.69897	DIPERLUKAN </s>
-0.39794	DIPERLUKAN UNTUK
-0.30103	DIPEROLEH SEBAGAI
-0.30103	DIPERSALAHKAN MELAKUKAN
-0.30103	DIPERSIAPKAN UNTUK
-0.30103	DIPILIH DENGAN
-0.30103	DIRAMPAS HARTANYA
-0.30103	DIRENDAHKAN MARTABATNYA
-0.30103	DIRI DARI
-0.30103	DIRINYA DAN
-0.30103	DISANGKA MELAKUKAN
-0.30103	DISCOUNT NYA
-0.30103	DISIKSA ATAU
-0.30103	DISITU NYIMENG
-0.30103	DISKON NIH
-0.90309	DISKRIMINASI </s>
-0.90309	DISKRIMINASI BERHAK
-0.90309	DISKRIMINASI SEMACAM
-0.90309	DISKRIMINASI YANG
-0.30103	DISURUH IKUT
-0.30103	DITAFSIRKAN MEMBERIKAN
-0.30103	DITAHAN ATAU
-0.30103	DITAMBAH DENGAN
-0.30103	DITANGKAP DITAHAN
-0.30103	DITENTUKAN MAU
-0.30103	DITETAPKAN OLEH
-0.30103	DITOLAK HAKNYA
-0.30103	DITUJUKAN KE
-0.30103	DITUNTUT KARENA
-0.60206	DIVING DI
-0.60206	DIVING TERBAIK
-0.30103	DIWAJIBKAN </s>
-0.30103	DOKUMENTASI ATAU
-0.30103	DONG MUMPUNG
-0.30103	DREAM DESTINATION
-0.748188	DUA </s>
-1.447158	DUA BELAS
-1.447158	DUA KALI
-0.447158	DUA PULUH
-1.447158	DUA RATUS
-1.146128	DUA SETIAP
-1.447158	DUA YANG
-0.30103	DUIT JUGA
-0.30103	DULU BEBERAPA
-0.60206	DUNIA </s>
-0.60206	DUNIA TEMPAT
-0.60206	DURIAN </s>
-0.60206	DURIAN ENAK
-0.30103	E PASPOR
-0.60206	EFEKTIF </s>
-0.60206	EFEKTIF DARI
-0.30103	EH JEPANG
-0.30103	EKONOMI </s>
-1	EMPAT </s>
-1	EMPAT BELAS
-1	EMPAT SETIAP
-1	EMPAT SORE
-1	EMPAT TIDAK
-1.414973	ENAK </s>
-1.414973	ENAK BANGET
-1.414973	ENAK BUAT
-1.414973	ENAK DI
-1.414973	ENAK ENAK
-1.414973	ENAK HUNTING
-1.414973	ENAK JUGA
-1.113943	ENAK KALAU
-1.113943	ENAK KALI
-1.414973	ENAK LIBURAN
-1.414973	ENAK PISAN
-1.414973	ENAK TUH
-1.041393	ENAKNYA KEMANA
-0.7403627	ENAKNYA LIBURAN
-1.041393	ENAKNYA NGAPAIN
-1.041393	ENAKNYA STAYCATION
-1.041393	ENAKNYA TIDUR
-0.7781513	ENAM BELAS
-0.7781513	ENAM SATU
-0.7781513	ENAM SETIAP
-0.30103	ENJOY BARENG
-0.30103	EROPA BIAR
-0.30103	EXPENSIVE BANGET
-0.30103	EXPERIENCE CITA
-0.7781513	EXPLORE CULTURAL
-0.7781513	EXPLORE PANTAI
-0.7781513	EXPLORE THE
-0.30103	EYE CATCHY
-0.30103	FACE RECOGNITION
-0.30103	FAMILY BAGI
-0.69897	FAVORIT DI
-0.39794	FAVORIT SAYA
-0.30103	FLIGHT </s>
-0.60206	FOOD DI
-0.60206	FOOD GITU
-0.60206	FOTO FOTO
-0.60206	FOTO SEBAIKNYA
-0.30103	FRESH DAN
-0.30103	FUNDAMENTAL DARI
-0.90309	GA CUMA
-0.90309	GA ENAK
-0.90309	GA EXPENSIVE
-0.90309	GA PAKE
-0.30103	GAJIKU GAK
-0.7781513	GAK BISA
-0.7781513	GAK CUKUP
-0.7781513	GAK SIH
-0.30103	GAME MAKAN
-0.60206	GANGGUAN </s>
-0.60206	GANGGUAN ATAU
-0.30103	GELOMBANG TINGGI
-0.30103	GENTENG </s>
-0.1760913	GEOGRAFIS LEBIH
-0.30103	GERAH BANGET
-0.60206	GILI MENO
-0.60206	GILI TRAWANGAN
-0.60206	GIMANA KALAU
-0.60206	GIMANA KALO
-0.30103	GITAR NYANYI
-0.544068	GITU </s>
-0.845098	GITU ENAK
-0.845098	GITU NGGA
-0.60206	GLAMPING KE
-0.60206	GLAMPING SELAMA
-0.30103	GOING TO
-0.30103	GOLDEN HOUR
-0.30103	GRATIS SETIDAK
-0.30103	GUNA MENENTANG
-0.9700368	GUNUNG </s>
-1.146128	GUNUNG BISA
-1.447158	GUNUNG BROMO
-1.447158	GUNUNG HARUS
-1.447158	GUNUNG JANGAN
-1.447158	GUNUNG MEMBUTUHKAN
-1.447158	GUNUNG MENIKMATI
-1.447158	GUNUNG MERUPAKAN
-1.146128	GUNUNG RINJANI
-1.447158	GUNUNG SALAK
-1.447158	GUNUNG SEMERU
-1.447158	GUNUNG TANGKUBAN
-0.60206	GW </s>
-0.60206	GW KEMARIN
-0.30103	HABIS </s>
-1.08636	HAK ASASI
-1.78533	HAK ATAS
-0.8310874	HAK DAN
-1.4843	HAK DASAR
-1.78533	HAK EKONOMI
-0.5065762	HAK HAK
-1.4843	HAK INI
-1.78533	HAK MANUSIA
-1.78533	HAK MILIK
-1.78533	HAK PILIH
-1.78533	HAK UNTUK
-1.78533	HAK UTAMA
-1.18327	HAK YANG
-0.30103	HAKNYA UNTUK
-0.7781513	HAL INI
-0.7781513	HAL KESUSILAAN
-0.7781513	HAL PALING
-0.30103	HAMPARAN PADANG
-0.30103	HAMPIR TIBA
-0.60206	HANYA DAPAT
-0.60206	HANYA PADA
-0.30103	HAPPY </s>
-1.113943	HARI DI
-1.113943	HARI INI
-1.113943	HARI KAMI
-0.8129134	HARI KITA
-1.113943	HARI LIBUR
-1.113943	HARI TERNYATA
-0.30103	HARTA </s>
-0.30103	HARTANYA DENGAN
-1.579784	HARUS COBA
-1.579784	HARUS DIAGENDAKAN
-1.579784	HARUS DINYATAKAN
-1.579784	HARUS DIPERSIAPKAN
-1.579784	HARUS DITUJUKAN
-1.579784	HARUS DIWAJIBKAN
-1.579784	HARUS GRATIS
-1.579784	HARUS MELALUI
-1.579784	HARUS MEMAJUKAN
-1.579784	HARUS MENDAPATKAN
-1.579784	HARUS MENGGALAKKAN
-1.579784	HARUS MENJADI
-1.579784	HARUS MERENCANAKAN
-1.579784	HARUS NABUNG
-1.579784	HARUS SECARA
-1.579784	HARUS SEDIA
-1.579784	HARUS SEIMBANG
-1.579784	HARUS TERBUKA
-1.579784	HARUS TUNDUK
-0.30103	HASIL DARI
-0.30103	HASUTAN YANG
-1.041393	HATI DI
-0.7403627	HATI HATI
-0.5642715	HATI NURANI
-1.041393	HATI SAMA
-0.30103	HEAD IN
-0.90309	HEALING </s>
-0.90309	HEALING SEKALIGUS
-0.90309	HEALING TERBAIK
-0.90309	HEALING TU
-0.30103	HEALTHY </s>
-0.30103	HENDAKNYA BERGAUL
-0.69897	HIDUP UDAH
-0.39794	HIDUP YANG
-0.30103	HIJAU ATAU
-0.30103	HIKE DI
-0.845098	HIKING DI
-0.544068	HIKING KE
-0.845098	HIKING SAYA
-0.30103	HIRUP UDARANYA
-0.30103	HOBI JOIN
-0.60206	HOLIDAY KE
-0.60206	HOLIDAY PALING
-0.60206	HORE </s>
-0.60206	HORE HORE
-0.60206	HOTEL SEHARIAN
-0.60206	HOTEL YANG
-0.30103	HOUR SORE
-0.60206	HUBUNGAN PERSAHABATAN
-0.60206	HUBUNGAN SURAT
-1.414973	HUKUM </s>
-1.414973	HUKUM ATAU
-1.414973	HUKUM DALAM
-1.414973	HUKUM DAN
-1.414973	HUKUM DIANGGAP
-1.414973	HUKUM ITU
-1.414973	HUKUM KARENA
-1.414973	HUKUM MENURUT
-1.414973	HUKUM MEREKA
-1.414973	HUKUM SEBAGAI
-1.414973	HUKUM SUPAYA
-1.414973	HUKUM TERHADAP
-1.414973	HUKUM YANG
-0.60206	HUKUMAN LEBIH
-0.60206	HUKUMAN YANG
-0.30103	HUNTING STREET
-0.60206	HUTAN </s>
-0.60206	HUTAN GITU
-0.60206	IA BERADA
-0.60206	IA MEMPEROLEH
-0.30103	IALAH LIBURAN
-0.30103	IBADAHNYA DAN
-0.30103	IBU DAN
-0.60206	IKUT </s>
-0.60206	IKUT MEETING
-0.30103	ILMIAH </s>
-0.30103	ILMU PENGETAHUAN
-0.7781513	IN CASE
-0.30103	IN THE
-1.079181	INDAH </s>
-1.079181	INDAH DI
-1.079181	INDAH KAYA
-1.079181	INDAH SEBAGAI
-1.079181	INDAH SELAMA
-1.079181	INDAH SEPERTI
-0.30103	INDIVIDU </s>
-0.6532125	INDONESIA </s>
-0.9542425	INDONESIA KAYA
-0.9542425	INDONESIA MEMILIKI
-0.9542425	INDONESIA TERKENAL
-0.30103	INFINITY POOL
-0.30103	INFORMASI DAN
-0.7781513	INGIN KE
-0.7781513	INGIN LIBURAN
-0.7781513	INGIN PERGI
-0.845098	INI </s>
-1.213075	INI AKU
-1.690196	INI BOLEH
-1.690196	INI DAN
-1.690196	INI DAPAT
-1.690196	INI DENGAN
-1.690196	INI DI
-1.690196	INI HARUS
-1.690196	INI KULIAH
-1.690196	INI MAH
-1.690196	INI MEMPROKLAMASIKAN
-1.690196	INI SANGAT
-1.690196	INI SELESAI
-1.690196	INI SERU
-1.690196	INI SUDAH
-1.690196	INI TANPA
-1.389166	INI TERMASUK
-1.690196	INI TIDAK
-1.690196	INI UNTUK
-1.690196	INI WHICH
-0.544068	INTERNASIONAL </s>
-0.845098	INTERNASIONAL DARI
-0.845098	INTERNASIONAL DI
-0.30103	IS PASTI
-0.30103	ISTIMEWA </s>
-0.30103	ISTIRAHAT DAN
-0.1760913	ITINERARY </s>
-0.9542425	ITU </s>
-1.255273	ITU BAGUS
-1.255273	ITU DILAKUKAN
-1.255273	ITU KALO
-1.255273	ITU MAHAL
-0.9542425	ITU MELIBATKAN
-1.255273	ITU SUPER
-1.255273	ITU TIDAK
-0.30103	IYA </s>
-0.30103	JABATAN PEMERINTAHAN
-0.30103	JABODETABEK </s>
-0.30103	JACKSON SOCIALLY
-1.060698	JADI ALTERNATIF
-1.361728	JADI BISA
-1.361728	JADI BUCKET
-1.060698	JADI HARUS
-1.361728	JADI KATANYA
-1.361728	JADI KITA
-1.060698	JADI LEBIH
-1.361728	JADI MAKIN
-1.361728	JADI PILIHAN
-1.361728	JADI RIWEUH
-0.30103	JAJAHAN ATAU
-0.30103	JAJANAN PINGGIR
-1	JAKARTA BANDUNG
-1	JAKARTA DENGAN
-1	JAKARTA GERAH
-1	JAKARTA POLUSI
-1	JAKARTA THE
-1.447158	JALAN </s>
-1.447158	JALAN ATAU
-1.447158	JALAN BAGAIMANA
-1.447158	JALAN BARENG
-1.447158	JALAN DI
-0.6690068	JALAN JALAN
-1.146128	JALAN KE
-1.447158	JALAN KEMARIN
-1.447158	JALAN MENGAJAR
-1.447158	JALAN TINDAKAN
-1.447158	JALAN YA
-0.7781513	JAM EMPAT
-0.7781513	JAM KERJA
-0.7781513	JAM SEBELUMNYA
-0.60206	JAMINAN PADA
-0.60206	JAMINAN YANG
-0.30103	JANDA MENCAPAI
-1.146128	JANGAN BUANG
-0.1918855	JANGAN LUPA
-1.146128	JANGAN SAMPAI
-0.30103	JANJI INI
-0.30103	JASTIP DONG
-0.60206	JAUH DARI
-0.60206	JAUH KARENA
-0.60206	JENIS KELAMIN
-0.60206	JENIS PENDIDIKAN
-0.90309	JEPANG </s>
-0.90309	JEPANG LAGI
-0.90309	JEPANG SEBENERNYA
-0.90309	JEPANG UDAH
-0.30103	JERMAN KATANYA
-0.60206	JIKA BERSAMA
-0.60206	JIKA PERLU
-0.30103	JIMBARAN </s>
-0.30103	JIWA KITA
-0.30103	JOGJA JANGAN
-0.60206	JOIN COOKING
-0.60206	JOIN OPEN
-0.30103	JONI MENGAJAKKU
-0.30103	JUAL KODOK
-1.255273	JUGA </s>
-1.255273	JUGA ALAT
-0.9542425	JUGA BISA
-1.255273	JUGA PUSING
-1.255273	JUGA SIH
-1.255273	JUGA TERNYATA
-0.9542425	JUGA TIDAK
-1.255273	JUGA UDAH
-0.30103	JUJUR DAN
-0.30103	JUJURLY SAYA
-0.30103	JURUSAN SECARA
-0.30103	JUST IN
-0.1760913	KADANG SUKA
-0.30103	KAGAK MUMET
-0.30103	KAK AKU
-0.30103	KAKAK LAGI
-1.322219	KALAU BELUM
-1.623249	KALAU BISA
-1.623249	KALAU DIBANDINGIN
-1.623249	KALAU HIDUP
-1.021189	KALAU KE
-1.623249	KALAU KITA
-1.623249	KALAU LAGI
-1.146128	KALAU LIBURAN
-1.623249	KALAU MAIN
-1.623249	KALAU MAKE
-1.322219	KALAU MAU
-1.623249	KALAU NATURE
-1.623249	KALAU SEMPAT
-1.623249	KALAU SEMUA
-1.322219	KALAU SUDAH
-1.623249	KALAU TIDAK
-1.623249	KALAU TURUN
-0.69897	KALI SETAHUN
-0.39794	KALI YA
-0.30103	KALIAN YANG
-0.9542425	KALO CAPE
-0.9542425	KALO KITA
-0.6532125	KALO MAU
-0.9542425	KALO PAGI
-0.30103	KAMERA UNTUK
-0.90309	KAMI BERENCANA
-0.90309	KAMI BISA
-0.90309	KAMI MENCOBA
-0.90309	KAMI PUNYA
-0.30103	KAMU HARUS
-0.30103	KANTOR LAGI
-0.7781513	KAPAN AJA
-0.7781513	KAPAN KITA
-0.7781513	KAPAN LIBURANNYA
-0.30103	KARANGNYA ITU
-1.380211	KARENA AKHIR
-1.380211	KARENA BISA
-1.380211	KARENA DISANGKA
-1.380211	KARENA KEADAAN
-1.380211	KARENA KEJAHATAN
-1.380211	KARENA MASIH
-1.380211	KARENA MEREKA
-1.380211	KARENA PEMANDANGAN
-1.079181	KARENA PERBUATAN
-1.380211	KARENA UDARA
-1.079181	KARENA UDARANYA
-0.30103	KASUS PENGEJARAN
-0.30103	KATA AKU
-0.90309	KATANYA BALI
-0.90309	KATANYA DISITU
-0.90309	KATANYA SEKARANG
-0.90309	KATANYA TRANS
-0.30103	KAWAH SANGAT
-0.60206	KAYA AKAN
-0.60206	KAYA POHON
-0.90309	KAYAKNYA </s>
-0.90309	KAYAKNYA KITA
-0.90309	KAYAKNYA SERU
-0.90309	KAYAKNYA TIDUR
-1.94939	KE ARAH
-1.34733	KE BALI
-1.94939	KE BANDUNG
-1.94939	KE BAWAH
-1.94939	KE DAERAH
-1.94939	KE DANAU
-1.94939	KE EROPA
-1.34733	KE GUNUNG
-1.94939	KE HEAD
-1.64836	KE JEPANG
-1.94939	KE JERMAN
-1.94939	KE JOGJA
-1.94939	KE KOREA
-1.64836	KE LEMBANG
-1.94939	KE LOMBOK
-1.94939	KE LONDON
-1.64836	KE LUAR
-1.94939	KE MACAU
-1.94939	KE MANA
-1.94939	KE MEDAN
-1.94939	KE MUSEUM
-1.94939	KE NEGERINYA
-1.94939	KE PALEMBANG
-1.171239	KE PANTAI
-1.64836	KE PEGUNUNGAN
-1.94939	KE PULAU
-1.64836	KE PUNCAK
-1.94939	KE RAJA
-1.94939	KE RANCA
-1.94939	KE RUMAH
-1.64836	KE SANA
-1.94939	KE SURABAYA
-1.94939	KE TANGKUBAN
-1.94939	KE TEMPAT
-1.94939	KE UBUD
-1.94939	KE WISATA
-0.30103	KEADAAN YANG
-0.30103	KEADILAN DAN
-0.60206	KEBANGSAAN </s>
-0.60206	KEBANGSAAN ATAU
-0.30103	KEBANYAKAN LIBUR
-1.371068	KEBEBASAN ASASI
-1.672098	KEBEBASAN BERBICARA
-1.672098	KEBEBASAN BERGANTI
-1.672098	KEBEBASAN BERGERAK
-1.672098	KEBEBASAN BERKUMPUL
-1.672098	KEBEBASAN DAN
-1.672098	KEBEBASAN DARI
-1.672098	KEBEBASAN INI
-0.7690079	KEBEBASAN KEBEBASAN
-1.672098	KEBEBASAN KEBEBASANNYA
-1.672098	KEBEBASAN MEMBERIKAN
-1.672098	KEBEBASAN MEMILIKI
-1.672098	KEBEBASAN MEMPUNYAI
-1.672098	KEBEBASAN ORANG
-1.672098	KEBEBASAN PIKIRAN
-1.371068	KEBEBASAN TERSEBUT
-1.672098	KEBEBASAN UNTUK
-1.194977	KEBEBASAN YANG
-0.30103	KEBEBASANNYA </s>
-0.30103	KEBERHASILAN UNTUK
-0.60206	KEBUDAYAAN MASYARAKAT
-0.60206	KEBUDAYAAN YANG
-0.30103	KEBUN TEH
-0.30103	KEBUTUHAN LIBURANKU
-0.30103	KEDAULATAN YANG
-0.30103	KEDUA MEMPELAI
-0.7781513	KEDUDUKAN INTERNASIONAL
-0.7781513	KEDUDUKAN LAIN
-0.7781513	KEDUDUKAN POLITIK
-0.60206	KEGIATAN APAPUN
-0.60206	KEGIATAN PERSERIKATAN
-0.60206	KEHENDAK INI
-0.60206	KEHENDAK RAKYAT
-0.60206	KEHIDUPAN KEBUDAYAAN
-0.60206	KEHIDUPAN YANG
-0.30103	KEHIDUPANNYA DAN
-0.30103	KEHORMATANNYA DALAM
-0.60206	KEINDAHAN ALAM
-0.60206	KEINDAHAN ALAMNYA
-0.60206	KEJAHATAN KEJAHATAN
-0.60206	KEJAHATAN YANG
-0.30103	KEJAM </s>
-0.30103	KEKAYAAN DARI
-0.60206	KEKUASAAN HUKUM
-0.60206	KEKUASAAN PEMERINTAH
-0.30103	KEKUASAANNYA </s>
-0.60206	KEKURANGAN MATA
-0.60206	KEKURANGAN TELAH
-0.30103	KELAHIRAN ATAUPUN
-0.30103	KELALAIAN YANG
-0.30103	KELALIMAN DAN
-0.30103	KELAMIN BAHASA
-0.30103	KELAR </s>
-0.30103	KELIHATAN BANGET
-0.60206	KELOMPOK ATAUPUN
-0.60206	KELOMPOK RAS
-0.2762064	KELUARGA </s>
-0.9294189	KELUARGA ADALAH
-1.230449	KELUARGA MANUSIA
-1.230449	KELUARGA UNTUK
-0.30103	KELUARGAKU BERENCANA
-0.39794	KELUARGANYA </s>
-0.69897	KELUARGANYA RUMAH
-0.7781513	KEMAJUAN DALAM
-0.7781513	KEMAJUAN ILMU
-0.7781513	KEMAJUAN SOSIAL
-0.845098	KEMANA KITA
-0.845098	KEMANA PENTING
-0.544068	KEMANA YA
-0.30103	KEMARAHAN HATI
-0.30103	KEMARAU KAYAKNYA
-1	KEMARIN AKU
-1	KEMARIN BARU
-1	KEMARIN KAMI
-1	KEMARIN KE
-1	KEMARIN LIBURAN
-0.30103	KEMASYARAKATAN HAK
-0.30103	KEMBALI KE
-0.60206	KEMERDEKAAN </s>
-0.60206	KEMERDEKAAN YANG
-0.30103	KENANG KENANGAN
-0.30103	KENANGAN DARI
-0.30103	KENAPA DINAMAI
-0.60206	KENIKMATAN KEBEBASAN
-0.60206	KENIKMATAN KESENIAN
-0.30103	KEPADA ANAK
-0.60206	KEPADANYA </s>
-0.60206	KEPADANYA OLEH
-0.30103	KEPANTASAN </s>
-0.60206	KEPENTINGAN KEPENTINGAN
-0.60206	KEPENTINGAN MORIL
-0.30103	KEPENTINGANNYA </s>
-0.7781513	KEPERCAYAAN </s>
-0.7781513	KEPERCAYAAN DENGAN
-0.7781513	KEPERCAYAAN MEREKA
-0.30103	KERAMAIAN KOTA
-0.30103	KERASA MENURUTKU
-0.30103	KEREN </s>
-0.60206	KERETA CEPAT
-0.60206	KERETA DARI
-0.30103	KERINGETAN </s>
-0.60206	KERJA ENAKNYA
-0.60206	KERJA YANG
-0.90309	KERJAAN DAN
-0.90309	KERJAAN MASIH
-0.90309	KERJAAN UDAH
-0.90309	KERJAAN WORK
-0.30103	KESALAHANNYA MENURUT
-0.30103	KESATUAN ALAMIAH
-0.30103	KESAYANGAN </s>
-0.30103	KESEGARAN UDARA
-0.1760913	KESEHATAN DAN
-0.30103	KESEHATANNYA SERTA
-0.60206	KESEJAHTERAAN UMUM
-0.60206	KESEJAHTERAAN UNTUK
-0.30103	KESELAMATAN INDIVIDU
-0.39794	KESEMPATAN UNTUK
-0.69897	KESEMPATAN YANG
-0.60206	KESENIAN DAN
-0.60206	KESENIAN YANG
-0.30103	KESUSASTERAAN ATAU
-0.30103	KESUSILAAN </s>
-0.30103	KETAKUTAN DAN
-0.30103	KETEMU BLACKPINK
-0.30103	KETERTIBAN DAN
-0.845098	KETIKA PELANGGARAN
-0.845098	KETIKA PERBUATAN
-0.544068	KETIKA SUNYI
-0.60206	KEWAJIBAN KEWAJIBANNYA
-0.60206	KEWAJIBAN TERHADAP
-0.30103	KEWAJIBANNYA SERTA
-0.30103	KEWARASAN JIWA
-0.39794	KEWARGANEGARAAN </s>
-0.69897	KEWARGANEGARAAN ATAU
-0.30103	KEWARGANEGARAANNYA ATAU
-0.60206	KHAS MAKANAN
-0.60206	KHAS YANG
-0.30103	KHUSUS GUNUNG
-1.342423	KITA </s>
-1.643453	KITA ABIS
-1.643453	KITA AKAN
-1.643453	KITA BAKAL
-0.7983546	KITA BISA
-1.643453	KITA BOAT
-1.643453	KITA BUTUH
-1.643453	KITA CAMPING
-1.643453	KITA EXPLORE
-1.643453	KITA HARUS
-1.643453	KITA JUGA
-1.643453	KITA KE
-1.643453	KITA MAU
-1.643453	KITA PERGI
-1.342423	KITA PERLU
-1.643453	KITA RELAX
-1.643453	KITA SNORKELING
-1.643453	KITA TUH
-0.30103	KM </s>
-0.30103	KODOK SEBESAR
-0.60206	KOMODO LIHAT
-0.60206	KOMODO MINGGU
-0.30103	KOMPETEN UNTUK
-0.30103	KONSER TAYLOR
-0.30103	KOPER SIH
-0.30103	KOPI SAMBIL
-0.30103	KOREA KETEMU
-0.7781513	KOTA </s>
-0.7781513	KOTA INI
-0.7781513	KOTA MEDAN
-0.30103	KU SIH
-0.30103	KUDA BIAR
-0.30103	KULIAH MULU
-0.30103	KULINER DI
-0.30103	KULINERAN TERUS
-0.30103	KULIT JENIS
-0.90309	KUMPUL BUAT
-0.90309	KUMPUL DEPAN
-0.90309	KUMPUL KELUARGA
-0.90309	KUMPUL KUMPUL
-0.30103	KUNJUNGI UNTUK
-0.60206	KURANG KERASA
-0.60206	KURANG LENGKAP
-0.30103	KUTA ADA
-1.060698	LAGI </s>
-1.361728	LAGI ABROAD
-1.361728	LAGI LIBUR
-1.361728	LAGI LIBURAN
-1.361728	LAGI MASA
-1.361728	LAGI MERENCANAKAN
-1.361728	LAGI MUSIN
-1.361728	LAGI NGADAIN
-1.361728	LAGI SIBUK
-1.361728	LAGI TELAH
-1.361728	LAGI TURUN
-0.6766936	LAIN </s>
-1.278754	LAIN AJA
-1.278754	LAIN DALAM
-1.278754	LAIN DI
-1.278754	LAIN KALO
-1.278754	LAIN KARENA
-1.278754	LAIN UNTUK
-1.278754	LAIN YANG
-0.30103	LAINNYA EMPAT
-0.30103	LAKE IN
-0.7781513	LALU AKU
-0.7781513	LALU KURANG
-0.7781513	LALU SAYA
-0.30103	LAMA TIDAK
-0.30103	LANDMARKS DI
-0.30103	LANGIT MALAM
-0.7781513	LANGSUNG ATAU
-0.7781513	LANGSUNG DEH
-0.7781513	LANGSUNG OPNAME
-0.30103	LANJUT ATAU
-0.30103	LAPER </s>
-0.30103	LARGEST VOLCANIC
-0.7781513	LAUT </s>
-0.7781513	LAUT DAN
-0.7781513	LAUT YANG
-0.60206	LAYAK DAN
-0.60206	LAYAK TERHADAP
-0.30103	LEAVE </s>
-1.447158	LEBIH BAIK
-1.447158	LEBIH BERAT
-1.447158	LEBIH BERMAKNA
-1.447158	LEBIH CEPAT
-1.447158	LEBIH CHEAP
-1.447158	LEBIH DARI
-1.447158	LEBIH FRESH
-1.447158	LEBIH JAUH
-1.447158	LEBIH LUAS
-1.447158	LEBIH MENYENANGKAN
-1.447158	LEBIH PILIH
-1.447158	LEBIH RAPI
-1.447158	LEBIH SUKA
-1.447158	LEBIH TERASA
-0.30103	LEGAL </s>
-0.30103	LELUASA DUA
-1.079181	LEMBANG </s>
-1.079181	LEMBANG AKU
-1.079181	LEMBANG ATAU
-1.079181	LEMBANG BANYAK
-1.079181	LEMBANG KARENA
-1.079181	LEMBANG PARK
-0.30103	LENGKAP KALAU
-0.60206	LETS EXPLORE
-0.60206	LETS TRY
-0.30103	LEWAT TRACK
-0.30103	LEZAT DARI
-0.60206	LIAT PEMANDANGAN
-0.60206	LIAT SALJU
-1.041393	LIBUR </s>
-1.041393	LIBUR BERKALA
-1.041393	LIBUR GA
-1.041393	LIBUR HAMPIR
-0.7403627	LIBUR TELAH
-1.402261	LIBURAN </s>
-2.004321	LIBURAN AKAN
-1.703291	LIBURAN AKHIR
-2.004321	LIBURAN AYO
-2.004321	LIBURAN BAGI
-1.703291	LIBURAN BARENG
-2.004321	LIBURAN BERSAMA
-2.004321	LIBURAN BULAN
-1.703291	LIBURAN DENGAN
-1.22617	LIBURAN DI
-2.004321	LIBURAN ENAK
-2.004321	LIBURAN GITU
-2.004321	LIBURAN GW
-2.004321	LIBURAN HARI
-2.004321	LIBURAN JADI
-1.703291	LIBURAN JANGAN
-2.004321	LIBURAN KAPAN
-0.890378	LIBURAN KE
-2.004321	LIBURAN KEMANA
-1.703291	LIBURAN KITA
-2.004321	LIBURAN LAGI
-2.004321	LIBURAN MINGGU
-2.004321	LIBURAN NAIK
-1.703291	LIBURAN PALING
-2.004321	LIBURAN PASTIKAN
-1.703291	LIBURAN SAYA
-2.004321	LIBURAN SIH
-1.703291	LIBURAN TAHUN
-1.402261	LIBURAN TAPI
-2.004321	LIBURAN TERUS
-2.004321	LIBURAN TIBALAH
-1.703291	LIBURAN TUH
-1.402261	LIBURAN YANG
-0.30103	LIBURANKU </s>
-0.30103	LIBURANNYA DAH
-0.60206	LIFE BALANCE
-0.60206	LIFE WILL
-0.7781513	LIHAT BANYAK
-0.7781513	LIHAT PEMANDANGAN
-0.7781513	LIHAT SUNSET
-0.90309	LIMA BELAS
-0.90309	LIMA PULUH
-0.90309	LIMA SATU
-0.90309	LIMA TIDAK
-0.30103	LIST KU
-0.30103	LITERALLY TRACKING
-0.30103	LOH </s>
-0.30103	LOKAL DAN
-0.30103	LOKASI </s>
-0.39794	LOMBOK </s>
-0.69897	LOMBOK PUNYA
-0.30103	LONDON </s>
-0.30103	LONG WEEKEND
-0.30103	LONGEST TRAIN
-0.845098	LUAR KEKUASAANNYA
-0.544068	LUAR NEGERI
-0.845098	LUAR PERKAWINAN
-0.1760913	LUAS </s>
-0.30103	LUASNYA SERTA
-0.9294189	LUPA BAWA
-1.230449	LUPA COBA
-1.230449	LUPA COBAIN
-1.230449	LUPA JALAN
-1.230449	LUPA MAMPIR
-1.230449	LUPA NANTI
-1.230449	LUPA REGISTRASI
-1.230449	LUPA UNTUK
-0.30103	MACAU </s>
-0.60206	MAH </s>
-0.60206	MAH YA
-0.30103	MAHAL KALAU
-0.30103	MAHASISWA SUDAH
-1.079181	MAIN AIR
-1.079181	MAIN DI
-1.079181	MAIN GAME
-1.079181	MAIN MAIN
-1.079181	MAIN PASIR
-1.079181	MAIN YANG
-0.30103	MAJELIS UMUM
-0.30103	MAKA MAJELIS
-1.079181	MAKAN DIKIT
-1.079181	MAKAN MAKAN
-1.079181	MAKAN PEMPEK
-1.079181	MAKAN SEAFOOD
-1.079181	MAKAN SELAMA
-1.079181	MAKAN SUNDA
-1.079181	MAKANAN BUAT
-1.079181	MAKANAN INDONESIA
-1.079181	MAKANAN KHAS
-1.079181	MAKANAN LEZAT
-1.079181	MAKANAN TERKENAL
-1.079181	MAKANAN TRADISIONAL
-0.60206	MAKANANNYA DIJAMIN
-0.60206	MAKANANNYA ENAK
-0.30103	MAKE E
-0.30103	MAKIN MUDAH
-0.30103	MAKSUD SEMATA
-0.7781513	MALAM </s>
-0.7781513	MALAM DI
-0.7781513	MALAM YANG
-0.30103	MALESIN PAS
-0.60206	MAMPIR DAN
-0.60206	MAMPIR KE
-1.255273	MANA BISA
-1.255273	MANA DIA
-1.255273	MANA HAK
-1.255273	MANA IA
-1.255273	MANA PUN
-1.255273	MANA SAJA
-1.255273	MANA SESEORANG
-0.7781513	MANA YA
-0.30103	MANFAATNYA DUA
-1.021189	MANUSIA </s>
-1.322219	MANUSIA ADALAH
-1.322219	MANUSIA AKAN
-1.322219	MANUSIA BERMARTABAT
-0.845098	MANUSIA DAN
-1.322219	MANUSIA MUKADIMAH
-1.322219	MANUSIA PERLU
-1.322219	MANUSIA SEBAGAI
-1.322219	MANUSIA TELAH
-0.30103	MANUSIAWI ATAU
-0.7781513	MARTABAT ALAMIAH
-0.30103	MARTABAT DAN
-0.30103	MARTABATNYA </s>
-0.60206	MASA LIBURAN
-0.60206	MASA PERKAWINAN
-0.30103	MASAK </s>
-0.30103	MASAKAN INDONESIA
-0.1760913	MASALAH GEOGRAFIS
-0.90309	MASIH BANYAK
-0.90309	MASIH CLOSE
-0.90309	MASIH WABAH
-0.90309	MASIH WAKTU
-0.7781513	MASYARAKAT </s>
-0.7781513	MASYARAKAT DAN
-1.079181	MASYARAKAT DENGAN
-1.079181	MASYARAKAT TEMPAT
-1.079181	MASYARAKAT YANG
-0.60206	MATA PENCARIAN
-0.60206	MATA UNTUK
-0.30103	MATANG UNTUK
-0.30103	MATERIAL YANG
-1.462398	MAU BERLIBUR
-1.462398	MAU DOKUMENTASI
-1.462398	MAU HABIS
-1.462398	MAU IKUT
-1.462398	MAU JALAN
-1.462398	MAU JASTIP
-1.462398	MAU JOIN
-1.462398	MAU KE
-1.462398	MAU KEMANA
-1.161368	MAU LIBURAN
-1.462398	MAU NONTON
-1.462398	MAU PERGI
-1.462398	MAU SENDIRIAN
-1.462398	MAU YA
-1.176091	MAUPUN AGAMA
-0.8750613	MAUPUN BERSAMA
-1.176091	MAUPUN DI
-1.176091	MAUPUN INTERNASIONAL
-1.176091	MAUPUN OLEH
-1.176091	MAUPUN SENDIRI
-1.176091	MAUPUN WANITA
-0.7781513	MEDAN ADA
-0.7781513	MEDAN ADALAH
-0.7781513	MEDAN JANGAN
-0.30103	MEDIA APA
-0.30103	MEETING </s>
-0.30103	MELAKSANAKAN IBADAHNYA
-1	MELAKUKAN PEKERJAAN
-1	MELAKUKAN PELANGGARAN
-1	MELAKUKAN PERBEDAAN
-1	MELAKUKAN PERBUATAN
-1	MELAKUKAN SUATU
-0.7781513	MELALUI MEDIA
-0.7781513	MELALUI SEGALA
-0.7781513	MELALUI WAKIL
-0.30103	MELEPASKAN SEMUA
-0.1760913	MELIBATKAN PERASAAN
-0.60206	MELINDUNGI DIRI
-0.60206	MELINDUNGI KEPENTINGANNYA
-0.30103	MEMAJUKAN KEGIATAN
-0.60206	MEMANDANG BATAS
-0.60206	MEMANDANG RENDAH
-0.30103	MEMANDANGI BINTANG
-0.60206	MEMANG PALING
-0.60206	MEMANG PILIHAN
-0.30103	MEMASAK MASAKAN
-0.60206	MEMASUKI SERIKAT
-0.60206	MEMASUKI SUATU
-0.30103	MEMBAWA KAMERA
-0.30103	MEMBEDA BEDAKAN
-0.30103	MEMBELI BEBERAPA
-0.30103	MEMBENTUK KELUARGA
-0.7781513	MEMBERIKAN KESEMPATAN
-0.7781513	MEMBERIKAN SESUATU
-0.7781513	MEMBERIKAN SUARA
-0.30103	MEMBUAT ITINERARY
-0.30103	MEMBUTUHKAN TOURGUIDE
-0.30103	MEMELIHARA PERDAMAIAN
-0.30103	MEMENUHI SYARAT
-0.30103	MEMIHAK </s>
-0.7781513	MEMILIH JENIS
-0.7781513	MEMILIH PEKERJAAN
-0.7781513	MEMILIH PEMBERONTAKAN
-0.90309	MEMILIKI BANYAK
-0.90309	MEMILIKI HARTA
-0.90309	MEMILIKI MAKANAN
-0.90309	MEMILIKI PENDAPAT
-0.30103	MEMORABLE ADALAH
-0.30103	MEMPELAI TIGA
-0.30103	MEMPERKOKOH RASA
-0.90309	MEMPEROLEH KESEMPATAN
-0.90309	MEMPEROLEH PERLAKUAN
-0.90309	MEMPEROLEH PERLINDUNGAN
-0.90309	MEMPEROLEH SEMUA
-0.30103	MEMPRAKTEKKANNYA MELAKSANAKAN
-0.30103	MEMPROKLAMASIKAN PERNYATAAN
-1.079181	MEMPUNYAI BANYAK
-1.079181	MEMPUNYAI DAN
-0.60206	MEMPUNYAI HAK
-1.079181	MEMPUNYAI KEWAJIBAN
-1.079181	MEMPUNYAI MARTABAT
-0.60206	MENA </s>
-0.60206	MENA DAPAT
-0.30103	MENAATINYA </s>
-0.30103	MENANTI </s>
-0.30103	MENANTIKAN LIBURAN
-0.30103	MENARIK KARENA
-0.60206	MENCAPAI KEMAJUAN
-0.60206	MENCAPAI USIA
-0.60206	MENCARI </s>
-0.60206	MENCARI DAN
-0.30103	MENCOBA GLAMPING
-0.30103	MENDAKI GUNUNG
-0.69897	MENDAPAT PENDIDIKAN
-0.39794	MENDAPAT PERLINDUNGAN
-0.60206	MENDAPATKAN PERAWATAN
-0.60206	MENDAPATKAN PERLINDUNGAN
-0.30103	MENDERITA SAKIT
-0.30103	MENDIDIK UNTUK
-0.30103	MENDING MAIN
-0.30103	MENDIRIKAN DAN
-0.30103	MENENTANG KELALIMAN
-0.60206	MENERIMA DAN
-0.60206	MENERIMA UPAH
-0.30103	MENETAPKAN HAK
-0.30103	MENGABADIKAN MOMEN
-0.30103	MENGABAIKAN DAN
-0.30103	MENGAJAKKU PERGI
-0.30103	MENGAJAR DAN
-0.30103	MENGAJARKANNYA </s>
-0.30103	MENGAKIBATKAN PERBUATAN
-0.30103	MENGAKOMODIR KEBUTUHAN
-0.30103	MENGALAMI KEKURANGAN
-0.30103	MENGANGGUR </s>
-0.30103	MENGARAH PADA
-0.1760913	MENGECAP KENIKMATAN
-0.30103	MENGELUARKAN PENDAPAT
-0.30103	MENGEMBANGKAN PRIBADINYA
-0.30103	MENGENAL BINATANG
-0.30103	MENGESANKAN </s>
-0.7781513	MENGGALAKKAN KEMAJUAN
-0.7781513	MENGGALAKKAN PENGHARGAAN
-0.7781513	MENGGALAKKAN SALING
-0.30103	MENGGANTI KEWARGANEGARAAN
-0.30103	MENGINAP DI
-0.30103	MENGINGAT PERNYATAAN
-0.30103	MENGUMPULKAN BATU
-0.30103	MENGUNJUNGI AIR
-0.30103	MENIKAH DAN
-0.6532125	MENIKMATI KEINDAHAN
-0.9542425	MENIKMATI LIBURAN
-0.9542425	MENIKMATI MALAM
-0.9542425	MENIKMATI SUAKA
-0.05799195	MENIMBANG BAHWA
-0.30103	MENIMBULKAN RASA
-0.30103	MENINGGALKAN SUATU
-1.079181	MENJADI DASAR
-1.079181	MENJADI DESTINASI
-1.079181	MENJADI JANDA
-1.079181	MENJADI OPSI
-1.079181	MENJADI PILIHAN
-1.079181	MENJADI TUJUAN
-0.30103	MENJAGA KESEHATAN
-0.30103	MENJALANKAN HAK
-0.9542425	MENJAMIN KEBEBASAN
-0.9542425	MENJAMIN KEHIDUPANNYA
-0.9542425	MENJAMIN KESEHATAN
-0.6532125	MENJAMIN PENGAKUAN
-0.30103	MENJATUHKAN HUKUMAN
-0.30103	MENJAUH DARI
-0.30103	MENJELAJAHI SINGAPURA
-0.30103	MENO ADALAH
-0.90309	MENURUT CARA
-0.90309	MENURUT HAK
-0.90309	MENURUT HUKUM
-0.90309	MENURUT UNDANG
-0.30103	MENURUTKU GAK
-0.30103	MENYAMPAIKAN INFORMASI
-0.60206	MENYATAKAN AGAMA
-0.60206	MENYATAKAN DI
-0.30103	MENYEGARKAN DAN
-0.544068	MENYENANGKAN </s>
-0.845098	MENYENANGKAN KARENA
-0.845098	MENYENANGKAN MEREKA
-0.30103	MENYURATNYA </s>
-0.30103	MERASAKAN KESEGARAN
-0.60206	MERDEKA </s>
-0.60206	MERDEKA DAN
-0.8750613	MEREKA </s>
-1.176091	MEREKA AKAN
-1.176091	MEREKA DIKARUNIAI
-1.176091	MEREKA MASIH
-1.176091	MEREKA MEMPUNYAI
-1.176091	MEREKA SELALU
-1.176091	MEREKA SEPERTI
-0.69897	MERENCANAKAN KEMANA
-0.39794	MERENCANAKAN LIBURAN
-0.60206	MERUPAKAN PENGALAMAN
-0.60206	MERUPAKAN SUATU
-0.30103	MERUSAK HAK
-0.30103	MESKIPUN JACKSON
-0.30103	MESTI DILARANG
-0.30103	MILIK KELAHIRAN
-0.30103	MIND BRO
-0.544068	MINGGU DEPAN
-0.845098	MINGGU INI
-0.845098	MINGGU LALU
-0.30103	MINUM KOPI
-0.7781513	MOMEN INDAH
-0.7781513	MOMEN MOMEN
-0.7781513	MOMEN YANG
-0.30103	MORIL DAN
-0.30103	MOTORAN KE
-0.30103	MRT ADALAH
-0.30103	MUDAH DENGAN
-0.30103	MUKA UMUM
-0.30103	MUKADIMAH MENIMBANG
-0.30103	MULA KEBANGSAAN
-0.30103	MULU KAPAN
-0.30103	MUMET IYA
-0.60206	MUMPUNG KAKAK
-0.60206	MUMPUNG LAGI
-0.30103	MUSEUM MENJADI
-0.30103	MUSIM KEMARAU
-0.30103	MUSIN DINGIN
-0.30103	MUTLAK DARI
-0.60206	MY DREAM
-0.60206	MY MIND
-0.30103	NABUNG DARI
-0.9542425	NAIK BANANA
-0.6532125	NAIK GUNUNG
-0.9542425	NAIK KERETA
-0.9542425	NAIK PESAWAT
-0.30103	NAMA BAIKNYA
-0.30103	NAMUN DIA
-1.079181	NANTI </s>
-1.079181	NANTI AKU
-1.079181	NANTI BROWSING
-1.079181	NANTI JAM
-1.079181	NANTI KALAU
-1.079181	NANTI SAYA
-0.7781513	NASIONAL ATAU
-0.7781513	NASIONAL MAUPUN
-0.7781513	NASIONAL YANG
-0.30103	NATURE HIKE
-0.7403627	NEGARA </s>
-1.041393	NEGARA ANGGOTA
-1.342423	NEGARA ATAU
-1.342423	NEGARA DUA
-1.342423	NEGARA LAIN
-0.8653014	NEGARA NEGARA
-1.342423	NEGARA PERLU
-1.342423	NEGARA YANG
-0.7781513	NEGERI </s>
-0.7781513	NEGERI ITU
-0.7781513	NEGERI TAHUN
-0.544068	NEGERINYA </s>
-0.845098	NEGERINYA SENDIRI
-0.845098	NEGERINYA TIGA
-0.30103	NGADAIN DISKON
-0.30103	NGAPAIN YA
-0.30103	NGELARIN KERJAAN
-0.90309	NGGA KERINGETAN
-0.90309	NGGA LAPER
-0.90309	NGGA SIH
-0.90309	NGGA TINGGAL
-0.30103	NGGELINDING AJA
-0.30103	NGILANGIN PENAT
-0.60206	NGOMONG NGOMONG
-0.60206	NGOMONG WAKTU
-0.30103	NIGHTLIFE NYA
-0.90309	NIH </s>
-0.90309	NIH AYO
-0.90309	NIH ENAKNYA
-0.90309	NIH KAYAKNYA
-0.30103	NILAI SESEORANG
-0.60206	NONTON KONSER
-0.60206	NONTON YOASOBI
-0.39794	NURANI DAN
-0.69897	NURANI UMAT
-0.30103	NUSA DUA
-0.90309	NYA </s>
-0.90309	NYA BEH
-0.90309	NYA DI
-0.90309	NYA SERU
-0.845098	NYANYI DI
-0.544068	NYANYI NYANYI
-0.845098	NYANYI SAMBIL
-0.30103	NYARI SUNSET
-0.30103	NYELAM DI
-0.30103	NYIAPIN WINTER
-0.30103	NYIMENG LEGAL
-0.30103	OBAT YA
-0.30103	OBJEK WISATA
-0.30103	OF THE
-1.060698	OLEH BANGSA
-1.361728	OLEH BUAT
-1.361728	OLEH KEDUA
-1.060698	OLEH OLEH
-1.361728	OLEH PENGADILAN
-1.361728	OLEH PERATURAN
-1.361728	OLEH PERJUANGAN
-1.361728	OLEH SEMUA
-1.060698	OLEH UNDANG
-1.361728	OLEH UNTUK
-0.30103	OMBAK ATAU
-0.30103	ONLINE </s>
-0.30103	OPEN TRIP
-0.30103	OPNAME </s>
-0.30103	OPSI YANG
-1.255273	ORANG </s>
-1.732394	ORANG BERDASARKAN
-0.3899711	ORANG BERHAK
-1.732394	ORANG DAN
-1.732394	ORANG DILAHIRKAN
-1.732394	ORANG HARUS
-1.732394	ORANG KESAYANGAN
-1.255273	ORANG LAIN
-1.431364	ORANG MEMPUNYAI
-1.732394	ORANG TANPA
-1.732394	ORANG TIDAK
-1.732394	ORANG TUA
-1.255273	ORANG YANG
-0.30103	ORGANISASI SERTA
-0.30103	OUT </s>
-0.30103	OVERTIME BAGAI
-0.9542425	PADA AKHIR
-0.9542425	PADA DISKRIMINASI
-0.9542425	PADA PEMBATASAN
-0.6532125	PADA SAAT
-0.30103	PADANG RUMPUT
-0.7781513	PAGI HARI
-0.7781513	PAGI KITA
-0.7781513	PAGI PAGI
-0.30103	PAKAIAN PERUMAHAN
-0.60206	PAKE AIR
-0.60206	PAKE VISA
-0.30103	PALEMBANG WAJIB
-1.255273	PALING ASIK
-0.5563025	PALING ENAK
-1.255273	PALING MALESIN
-1.255273	PALING MEMORABLE
-1.255273	PALING SEGAR
-1.255273	PALING SERU
-1.255273	PALING TERKENAL
-0.30103	PANGAN PAKAIAN
-0.30103	PANJANG SEMBILAN
-0.7269987	PANTAI </s>
-1.50515	PANTAI ATAU
-1.50515	PANTAI BUAT
-1.50515	PANTAI HATI
-1.50515	PANTAI INDAH
-1.50515	PANTAI KUTA
-1.50515	PANTAI NUSA
-1.50515	PANTAI PANTAI
-1.20412	PANTAI SELALU
-1.50515	PANTAI SELAMA
-1.50515	PANTAI TUH
-1.028029	PANTAI YANG
-0.30103	PANTAINYA </s>
-0.30103	PANTAS UNTUK
-0.30103	PARA IBU
-0.30103	PARK ZOO
-0.7781513	PAS LIBURAN
-0.7781513	PAS PULANG
-0.7781513	PAS SAMPE
-1.311754	PASAL DELAPAN
-0.5336026	PASAL DUA
-1.311754	PASAL EMPAT
-1.311754	PASAL ENAM
-1.311754	PASAL LIMA
-1.612784	PASAL SATU
-1.612784	PASAL SEBELAS
-1.311754	PASAL SEMBILAN
-1.612784	PASAL SEPULUH
-1.135663	PASAL TIGA
-1.311754	PASAL TUJUH
-0.30103	PASAR LOKAL
-0.30103	PASIR DAN
-0.30103	PASPOR </s>
-0.30103	PASTI SANGAT
-0.30103	PASTIKAN SUDAH
-0.6532125	PEGUNUNGAN </s>
-0.9542425	PEGUNUNGAN KARENA
-0.9542425	PEGUNUNGAN MEMBERIKAN
-0.9542425	PEGUNUNGAN SAMBIL
-0.30103	PEKERJA UNTUK
-0.544068	PEKERJAAN </s>
-0.845098	PEKERJAAN BERHAK
-0.845098	PEKERJAAN YANG
-0.30103	PELAKSANAAN YANG
-1.041393	PELANGGARAN ATAS
-1.041393	PELANGGARAN HAK
-0.4393327	PELANGGARAN HUKUM
-1.041393	PELANGGARAN SEPERTI
-0.30103	PELAYANAN SOSIAL
-0.69897	PEMANDANGAN DARI
-0.39794	PEMANDANGAN YANG
-0.30103	PEMBANGUNAN HUBUNGAN
-0.845098	PEMBATASAN JAM
-0.544068	PEMBATASAN PEMBATASAN
-0.845098	PEMBATASAN YANG
-0.30103	PEMBELAANNYA </s>
-0.30103	PEMBERONTAKAN SEBAGAI
-0.30103	PEMERINTAH </s>
-0.1760913	PEMERINTAHAN NEGERINYA
-0.30103	PEMILIHAN UMUM
-0.30103	PEMPEK </s>
-0.30103	PEMUNGUTAN SUARA
-0.30103	PENAT PALING
-0.30103	PENCARIAN YANG
-0.7781513	PENDAPAT </s>
-0.7781513	PENDAPAT TANPA
-0.7781513	PENDAPAT YANG
-1.146128	PENDIDIKAN </s>
-1.146128	PENDIDIKAN DASAR
-0.6690068	PENDIDIKAN HARUS
-1.146128	PENDIDIKAN RENDAH
-1.146128	PENDIDIKAN TEKNIK
-1.146128	PENDIDIKAN YANG
-0.7781513	PENGADILAN NASIONAL
-0.30103	PENGADILAN YANG
-0.30103	PENGAJARAN TINGGI
-0.90309	PENGAKUAN ATAS
-0.90309	PENGAKUAN DAN
-0.90309	PENGAKUAN DI
-0.90309	PENGAKUAN SERTA
-0.30103	PENGALAMAN YANG
-0.30103	PENGANGGURAN </s>
-0.60206	PENGEJARAN </s>
-0.60206	PENGEJARAN YANG
-0.69897	PENGEN DEH
-0.39794	PENGEN LIBURAN
-0.60206	PENGERTIAN </s>
-0.60206	PENGERTIAN UMUM
-0.30103	PENGETAHUAN DAN
-0.69897	PENGHARGAAN DAN
-0.39794	PENGHARGAAN TERHADAP
-0.30103	PENGHIDUPAN KEBEBASAN
-0.60206	PENGHORMATAN UMUM
-0.60206	PENGHORMATAN YANG
-0.30103	PENGHORMATANNYA SECARA
-0.1760913	PENGUPAHAN YANG
-0.30103	PENINDASAN </s>
-0.69897	PENTING MAKANANNYA
-0.39794	PENTING UNTUK
-0.90309	PENUH </s>
-0.90309	PENUH DAN
-0.90309	PENUH OLEH
-0.90309	PENUH TANTANGAN
-0.30103	PENYUKA DURIAN
-0.60206	PERAHU SANGAT
-0.60206	PERAHU SERU
-0.30103	PERANCIS </s>
-0.1760913	PERASAAN YANG
-0.30103	PERATURAN HUKUM
-0.60206	PERAWATAN DAN
-0.60206	PERAWATAN KESEHATANNYA
-0.30103	PERBEDAAN ATAS
-1.079181	PERBUATAN ATAU
-1.079181	PERBUATAN BENGIS
-0.7781513	PERBUATAN PERBUATAN
-1.079181	PERBUATAN TERSEBUT
-0.7781513	PERBUATAN YANG
-0.30103	PERBUDAKAN DAN
-0.30103	PERBUKITAN ATAU
-0.30103	PERBURUHAN YANG
-0.30103	PERCERAIAN </s>
-0.30103	PERDAGANGAN BUDAK
-0.60206	PERDAMAIAN DI
-0.60206	PERDAMAIAN TIGA
-1.113943	PERGI GLAMPING
-1.113943	PERGI JAUH
-0.6368221	PERGI KE
-0.8129134	PERGI LIBURAN
-1.113943	PERGI NANTI
-0.60206	PERJALANAN </s>
-0.60206	PERJALANAN BIAR
-0.30103	PERJUANGAN </s>
-0.544068	PERKAWINAN </s>
-0.845098	PERKAWINAN DAN
-0.845098	PERKAWINAN HANYA
-0.30103	PERKECUALIAN APAPUN
-0.30103	PERKEMBANGAN PRIBADI
-0.30103	PERKUMPULAN </s>
-0.30103	PERLAKUAN ATAU
-0.30103	PERLENGKAPAN YANG
-1.113943	PERLINDUNGAN ATAS
-0.8129134	PERLINDUNGAN DARI
-0.8129134	PERLINDUNGAN HUKUM
-0.8129134	PERLINDUNGAN SOSIAL
-1.113943	PERLINDUNGAN YANG
-1	PERLU DIGALAKKAN
-1	PERLU DILINDUNGI
-1	PERLU DITAMBAH
-1	PERLU NYIAPIN
-1	PERLU PREPARE
-0.30103	PERMAINANNYA </s>
-0.30103	PERNAH NYELAM
-0.2218488	PERNYATAAN INI
-0.69897	PERNYATAAN UMUM
-0.60206	PERSAHABATAN ANTARA
-0.60206	PERSAHABATAN DI
-0.30103	PERSAMAAN YANG
-0.30103	PERSAUDARAAN </s>
-0.06694679	PERSERIKATAN BANGSA
-0.30103	PERSETUJUAN PENUH
-0.30103	PERTUMBUHAN BEBAS
-0.30103	PERUMAHAN DAN
-0.30103	PERWALIAN </s>
-0.30103	PESAWAT DARI
-0.30103	PESONA LAUT
-0.30103	PIAGAM PERSERIKATAN
-0.30103	PIDANA YANG
-0.60206	PIKIRAN HATI
-0.60206	PIKIRAN MELALUI
-0.60206	PILIH DI
-0.60206	PILIH YANG
-1	PILIHAN BEBAS
-1	PILIHAN FAVORIT
-1	PILIHAN HEALING
-1	PILIHAN LAIN
-1	PILIHAN LIBURAN
-0.30103	PINGGIR JALAN
-0.30103	PINGIN LIBURAN
-0.30103	PINTER KAGAK
-0.30103	PISAN </s>
-0.30103	PLAN YANG
-0.60206	POHON POHON
-0.60206	POHON YANG
-0.39794	POLITIK </s>
-0.69897	POLITIK ATAU
-0.30103	POLUSI UDARANYA
-0.30103	POOL </s>
-0.30103	PREFERENCE TIPE
-0.30103	PREPARE DENGAN
-0.60206	PRIA DAN
-0.60206	PRIA MAUPUN
-0.60206	PRIBADI DI
-0.60206	PRIBADI YANG
-0.39794	PRIBADINYA </s>
-0.69897	PRIBADINYA DENGAN
-0.30103	PRINDAVAN SALAH
-0.30103	PRODUKSI ILMIAH
-0.30103	PROGRESIF YANG
-0.30103	PROJECTNYA SAATNYA
-0.30103	PUAS KALAU
-0.30103	PULANG KITA
-0.69897	PULAU BINTAN
-0.39794	PULAU KOMODO
-1.342423	PULUH DELAPAN
-1.342423	PULUH DUA
-1.342423	PULUH EMPAT
-1.342423	PULUH ENAM
-1.342423	PULUH LIMA
-1.041393	PULUH SATU
-1.041393	PULUH SEMBILAN
-1.342423	PULUH TIDAK
-1.342423	PULUH TIGA
-1.342423	PULUH TUJUH
-0.4522977	PUN BOLEH
-1.230449	PUN DAPAT
-1.230449	PUN DENGAN
-1.230449	PUN DI
-1.230449	PUN SEKALI
-1.230449	PUN YANG
-0.60206	PUNCAK JANGAN
-0.60206	PUNCAK LEBIH
-0.90309	PUNYA INFINITY
-0.90309	PUNYA PANTAI
-0.90309	PUNYA PLAN
-0.90309	PUNYA RENCANA
-0.30103	PUSING JADI
-0.30103	RAHASIA ATAUPUN
-0.30103	RAILWAY DENGAN
-0.1760913	RAJA AMPAT
-0.60206	RAKYAT BIASA
-0.60206	RAKYAT HARUS
-0.30103	RANCA UPAS
-0.30103	RAPI </s>
-0.60206	RAS MAUPUN
-0.60206	RAS WARNA
-0.90309	RASA KEMARAHAN
-0.90309	RASA KHAS
-0.90309	RASA MAKANANNYA
-0.90309	RASA PENGHARGAAN
-0.60206	RASANYA COBAIN
-0.60206	RASANYA KURANG
-0.30103	RATUS LIMA
-0.30103	RAWON SETAN
-0.30103	RECOGNITION DULU
-0.60206	REFRESHING </s>
-0.60206	REFRESHING SANGAT
-0.30103	REGISTRASI UNTUK
-0.30103	REKOMENDASI VACATION
-0.30103	RELAX SEJENAK
-0.60206	RELAXING </s>
-0.60206	RELAXING BUAT
-0.60206	RENCANA BUDGET
-0.60206	RENCANA UNTUK
-0.30103	RENCANANYA KITA
-0.7781513	RENDAH DAN
-0.7781513	RENDAH HAK
-0.7781513	RENDAH HARUS
-0.30103	RESERVASI ONLINE
-0.30103	RESTORAN JUAL
-0.30103	RIBU DUA
-0.1760913	RINJANI </s>
-0.30103	RIWEUH SENDIRI
-0.7781513	RUMAH AJA
-0.7781513	RUMAH MAKAN
-0.7781513	RUMAH TANGGANYA
-0.30103	RUMPUT YANG
-1	SAAT BERADA
-1	SAAT MENGANGGUR
-1	SAAT PERCERAIAN
-1	SAAT SAAT
-1	SAAT SUNRISE
-0.60206	SAATNYA AMBIL
-0.60206	SAATNYA MERENCANAKAN
-0.30103	SABAR UNTUK
-0.30103	SAFE FLIGHT
-0.60206	SAJA DAN
-0.60206	SAJA IA
-0.60206	SAKIT CACAT
-0.60206	SAKIT DI
-0.845098	SALAH MAKAN
-0.544068	SALAH SATU
-0.845098	SALAH SATUNYA
-0.30103	SALAK JADI
-0.30103	SALING PENGERTIAN
-0.30103	SALJU </s>
-1	SAMA </s>
-1.477121	SAMA AGODA
-1.477121	SAMA DALAM
-1.477121	SAMA DAN
-1.477121	SAMA DARI
-1.176091	SAMA DENGAN
-1.477121	SAMA DI
-1.477121	SAMA GELOMBANG
-1.477121	SAMA LAIN
-1.477121	SAMA PREFERENCE
-1.477121	SAMA TANPA
-1.477121	SAMA TERHADAP
-1.176091	SAMA UNTUK
-1	SAMBIL BELAJAR
-1	SAMBIL BERSANTAI
-1	SAMBIL KULINERAN
-1	SAMBIL MEMANDANGI
-1	SAMBIL MENIKMATI
-0.30103	SAMPAH SEMBARANGAN
-0.30103	SAMPAHNYA DIBAWA
-0.60206	SAMPAI DIBUKTIKAN
-0.60206	SAMPAI TERLEWAT
-0.30103	SAMPE TEMPAT
-0.30103	SAMPING ITU
-0.544068	SANA </s>
-0.845098	SANA BANYAK
-0.845098	SANA MUMPUNG
-1.255273	SANGAT BERHARGA
-1.255273	SANGAT DIPERLUKAN
-1.255273	SANGAT INDAH
-1.255273	SANGAT MENANTIKAN
-1.255273	SANGAT MENGESANKAN
-0.9542425	SANGAT MENYENANGKAN
-0.9542425	SANGAT PENTING
-1.255273	SANGAT SERU
-1.518514	SATU DARIPADA
-1.518514	SATU PRIA
-1.518514	SATU PUN
-1.518514	SATU SAMA
-1.518514	SATU SATU
-1.518514	SATU SATUNYA
-1.518514	SATU SEMUA
-0.4393327	SATU SETIAP
-1.518514	SATU SPOT
-1.518514	SATU STANDAR
-1.518514	SATU TUJUAN
-0.60206	SATUNYA DI
-0.60206	SATUNYA KE
-1.060698	SAYA </s>
-1.060698	SAYA ADALAH
-1.361728	SAYA AKAN
-1.361728	SAYA DENGAR
-1.361728	SAYA INGIN
-1.361728	SAYA LEBIH
-1.060698	SAYA SUKA
-1.361728	SAYA TAHUN
-1.361728	SAYA TIDAK
-1.361728	SAYA UNTUK
-0.30103	SEAFOOD DI
-1.146128	SEBAGAI ANGGOTA
-1.146128	SEBAGAI CITA
-1.146128	SEBAGAI HASIL
-1.146128	SEBAGAI KENANG
-1.146128	SEBAGAI PRIBADI
-1.146128	SEBAGAI SATU
-1.146128	SEBAGAI USAHA
-0.30103	SEBAGIAN BESAR
-0.30103	SEBAIKNYA SAAT
-0.30103	SEBELAS SATU
-0.60206	SEBELUM LIBURAN
-0.60206	SEBELUM SIDANG
-0.1760913	SEBELUMNYA </s>
-0.30103	SEBENERNYA TAPI
-0.30103	SEBENTAR LAGI
-0.30103	SEBESAR AYAM
-0.30103	SEBULAN </s>
-1.20412	SECARA ADIL
-1.20412	SECARA BERKALA
-1.20412	SECARA DAMAI
-1.20412	SECARA KEJAM
-1.20412	SECARA LANGSUNG
-1.20412	SECARA TIDAK
-1.20412	SECARA UMUM
-1.20412	SECARA UNIVERSAL
-0.30103	SECOND FAMILY
-0.30103	SEDIA BACKPACK
-0.60206	SEGALA HASUTAN
-0.60206	SEGALA TUGAS
-0.544068	SEGAR </s>
-0.845098	SEGAR ADALAH
-0.845098	SEGAR DAN
-0.30103	SEGER DIJAMIN
-0.30103	SEHARIAN </s>
-0.30103	SEHARUSNYA DIKENAKAN
-0.30103	SEIMBANG </s>
-0.30103	SEJARAH LOH
-0.60206	SEJENAK MENJAUH
-0.60206	SEJENAK YUK
-0.60206	SEJUK ADEM
-0.60206	SEJUK DAN
-0.90309	SEKALI LAGI
-0.90309	SEKALI SEKALI
-0.90309	SEKALI TIDAK
-0.90309	SEKALI YANG
-0.30103	SEKALIAN EXPLORE
-0.30103	SEKALIGUS MENGENAL
-0.60206	SEKARANG TRAVELING
-0.60206	SEKARANG TUH
-0.30103	SEKEDAR KUMPUL
-0.30103	SEKITARAN BANDUNG
-0.30103	SEKOLAH RENDAH
-0.9542425	SELALU JADI
-0.9542425	SELALU MEMBAWA
-0.6532125	SELALU MENJADI
-0.9542425	SELALU SANGAT
-1.146128	SELAMA DI
-0.845098	SELAMA LIBURAN
-1.146128	SELAMA MASIH
-0.845098	SELAMA PERJALANAN
-1.146128	SELAMA SEBULAN
-1.146128	SELAMA TIGA
-0.7781513	SELESAI AKU
-0.7781513	SELESAI BESOK
-0.7781513	SELESAI TESIS
-0.30103	SELUAS LUASNYA
-0.30103	SEMACAM ITU
-0.30103	SEMAKIN BANYAK
-0.30103	SEMANGAT PERSAUDARAAN
-0.30103	SEMATA MATA
-0.30103	SEMBARANGAN SAMPAHNYA
-1.079181	SEMBILAN BELAS
-1.079181	SEMBILAN ENAKNYA
-1.079181	SEMBILAN KM
-1.079181	SEMBILAN RIBU
-1.079181	SEMBILAN SATU
-1.079181	SEMBILAN TIDAK
-0.1760913	SEMENA MENA
-0.30103	SEMERU TERNYATA
-0.60206	SEMESTER INI
-0.60206	SEMESTER NANTI
-0.60206	SEMOGA AJA
-0.60206	SEMOGA SUATU
-0.30103	SEMPAT BAWAKAN
-1.380211	SEMUA ANAK
-1.380211	SEMUA ANGGOTA
-1.079181	SEMUA BANGSA
-1.380211	SEMUA BEBAN
-1.380211	SEMUA BERHAK
-1.380211	SEMUA HAK
-1.380211	SEMUA JAMINAN
-1.380211	SEMUA KERJAAN
-1.380211	SEMUA NEGARA
-0.7781513	SEMUA ORANG
-0.30103	SENANTIASA MENGINGAT
-1	SENDIRI </s>
-1	SENDIRI DAN
-0.5228788	SENDIRI MAUPUN
-1	SENDIRI TAPI
-0.30103	SENDIRIAN STAYCATION
-0.05115252	SEORANG PUN
-0.30103	SEPANJANG HARI
-0.30103	SEPENUHNYA </s>
-0.90309	SEPERTI ITU
-0.90309	SEPERTI PANTAI
-0.90309	SEPERTI RAS
-0.90309	SEPERTI SECOND
-0.30103	SEPERTINYA MENYENANGKAN
-0.30103	SEPI GITU
-0.30103	SEPULUH SETIAP
-0.60206	SERIKAT PEKERJA
-0.60206	SERIKAT SERIKAT
-1.278754	SERTA BAIK
-0.9777236	SERTA DALAM
-1.278754	SERTA DENGAN
-1.278754	SERTA HARUS
-1.278754	SERTA KEBEBASAN
-1.278754	SERTA MEMPERKOKOH
-1.278754	SERTA PELAYANAN
-1.278754	SERTA PENGHORMATAN
-1.278754	SERTA SUMBER
-1.079181	SERU </s>
-0.7781513	SERU BANGET
-1.079181	SERU JUGA
-1.079181	SERU KALAU
-0.7781513	SERU NIH
-0.7781513	SESEORANG </s>
-0.7781513	SESEORANG BERASAL
-0.7781513	SESEORANG MANUSIA
-0.60206	SESUAI DENGAN
-0.60206	SESUAI SAMA
-0.7781513	SESUATU KEWARGANEGARAAN
-0.7781513	SESUATU NEGARA
-0.7781513	SESUATU PRODUKSI
-0.30103	SETAHUN </s>
-0.30103	SETAN MAKANAN
-0.7781513	SETELAH BERMAIN
-0.7781513	SETELAH SELESAI
-0.7781513	SETELAH SEMESTER
-0.30103	SETENGAH TAHUN
-1.633469	SETIAP BADAN
-1.633469	SETIAP BENTUK
-1.633469	SETIAP DAERAH
-1.332438	SETIAP NEGARA
-0.1421068	SETIAP ORANG
-1.633469	SETIAP TUNTUTAN
-0.30103	SETIDAK TIDAKNYA
-0.1760913	SEWENANG WENANG
-0.30103	SIANG HARI
-0.30103	SIAPA MAU
-0.30103	SIBERIAN RAILWAY
-0.30103	SIBUK SIBUKNYA
-0.30103	SIBUKNYA PROJECTNYA
-0.30103	SIDANG SEPERTINYA
-1.146128	SIH </s>
-1.146128	SIH AIRNYA
-1.146128	SIH BORING
-1.146128	SIH DARIPADA
-1.146128	SIH INI
-1.146128	SIH LIBURAN
-1.146128	SIH SEJENAK
-0.30103	SINGAPUR TAPI
-0.30103	SINGAPURA </s>
-0.30103	SLEEPING BAG
-0.30103	SNORKELING DI
-0.7781513	SO BEAUTIFUL
-0.7781513	SO CLEAR
-0.7781513	SO RELAXING
-0.30103	SOAL PERKAWINAN
-0.7781513	SOALNYA </s>
-0.7781513	SOALNYA BISA
-0.7781513	SOALNYA LEBIH
-0.30103	SOCIALLY AWKWARD
-0.30103	SOLD OUT
-0.30103	SOMETIMES KITA
-0.60206	SORE INI
-0.60206	SORE KUMPUL
-0.4771213	SOSIAL DAN
-0.9542425	SOSIAL LAINNYA
-0.6532125	SOSIAL YANG
-0.60206	SPOT DIVING
-0.60206	SPOT SURFING
-0.30103	STANDAR UMUM
-0.30103	STAYCATION DI
-0.7781513	STAYCATION ENAKNYA
-0.1760913	STREET FOOD
-0.30103	STRES SAATNYA
-0.30103	STRESS GAK
-0.30103	STUDIO BANDUNG
-0.30103	SUAKA DI
-0.60206	SUARA </s>
-0.60206	SUARA YANG
-1.278754	SUATU DUNIA
-1.278754	SUATU HARI
-1.278754	SUATU KEHIDUPAN
-1.278754	SUATU MASYARAKAT
-1.278754	SUATU NEGERI
-0.9777236	SUATU PELANGGARAN
-1.278754	SUATU PENGADILAN
-1.278754	SUATU PERKUMPULAN
-1.278754	SUATU TATANAN
-1.20412	SUDAH DEWASA
-1.20412	SUDAH DITENTUKAN
-1.20412	SUDAH LAMA
-1.20412	SUDAH LIBURAN
-1.20412	SUDAH MENANTI
-1.20412	SUDAH MENGUNJUNGI
-1.20412	SUDAH PUNYA
-1.20412	SUDAH SELESAI
-1.079181	SUKA ADA
-1.079181	SUKA BAWA
-1.079181	SUKA BERLIBUR
-1.079181	SUKA JADI
-1.079181	SUKA MENGINAP
-1.079181	SUKA MINUM
-0.60206	SUMBER KEKAYAAN
-0.60206	SUMBER SUMBER
-0.30103	SUNDA YANG
-0.60206	SUNGGUH DARI
-0.60206	SUNGGUH SUNGGUH
-0.60206	SUNRISE BIAR
-0.60206	SUNRISE VIEW
-0.60206	SUNSET </s>
-0.60206	SUNSET SURFING
-0.1760913	SUNYI </s>
-0.30103	SUPAYA ORANG
-0.30103	SUPER COZY
-0.30103	SURABAYA JANGAN
-0.30103	SURAT MENYURATNYA
-0.60206	SURFING DI
-0.60206	SURFING YANG
-0.30103	SURGANYA PENYUKA
-0.30103	SUSUN RENCANA
-0.30103	SWIFT DI
-0.845098	SYARAT PERBURUHAN
-0.544068	SYARAT SYARAT
-0.845098	SYARAT YANG
-1	TAHUN DEPAN
-1.30103	TAHUN DUA
-0.455932	TAHUN INI
-1.30103	TAHUN KEMARIN
-1	TAHUN LALU
-1.30103	TAHUN SEBELUMNYA
-0.30103	TAHUNNYA </s>
-0.30103	TAHURA PAGI
-0.60206	TAK BERHUBUNGAN
-0.60206	TAK SEORANG
-0.30103	TAKUT BANGET
-0.30103	TANGGANYA ATAU
-0.1760913	TANGKUBAN PERAHU
-0.544068	TANPA DISKRIMINASI
-0.845098	TANPA GANGGUAN
-0.845098	TANPA PERKECUALIAN
-0.30103	TANTANGAN </s>
-1.322219	TAPI ENAK
-1.322219	TAPI HARUS
-1.322219	TAPI KERJAAN
-1.322219	TAPI NIGHTLIFE
-1.322219	TAPI SUNRISE
-1.322219	TAPI TESIS
-1.322219	TAPI TETEP
-1.322219	TAPI TIDAK
-1.322219	TAPI TIKETNYA
-1.021189	TAPI TUGAS
-0.1760913	TARAF HIDUP
-0.30103	TATANAN SOSIAL
-0.30103	TAYLOR SWIFT
-0.30103	TEH JUGA
-0.30103	TEKNIK DAN
-1.113943	TELAH BERJANJI
-1.113943	TELAH BERTEKAD
-1.113943	TELAH DINYATAKAN
-1.113943	TELAH MENGAKIBATKAN
-1.113943	TELAH MENYATAKAN
-0.8129134	TELAH TIBA
-0.6532125	TEMAN DAN
-0.9542425	TEMAN DI
-0.9542425	TEMAN MOTORAN
-0.9542425	TEMAN TEMAN
-0.30103	TEMANKU AKAN
-0.60206	TEMEN </s>
-0.60206	TEMEN GW
-1.278754	TEMPAT ADEM
-1.278754	TEMPAT DINNER
-1.278754	TEMPAT LIBURAN
-1.278754	TEMPAT MANUSIA
-1.278754	TEMPAT PALING
-1.278754	TEMPAT SATU
-1.278754	TEMPAT TUJUAN
-0.9777236	TEMPAT WISATA
-1.278754	TEMPAT YANG
-0.30103	TEMPLES AND
